{"learner":{"attributes":{"scikit_learn":"{\"_estimator_type\": \"classifier\"}"},"feature_names":[],"feature_types":[],"gradient_booster":{"model":{"cats":{"enc":[],"feature_segments":[],"sorted_idx":[]},"gbtree_model_param":{"num_parallel_tree":"1","num_trees":"100"},"iteration_indptr":[0,1,2,3,4,5,6,7,8,9,10,11,12,13,14,15,16,17,18,19,20,21,22,23,24,25,26,27,28,29,30,31,32,33,34,35,36,37,38,39,40,41,42,43,44,45,46,47,48,49,50,51,52,53,54,55,56,57,58,59,60,61,62,63,64,65,66,67,68,69,70,71,72,73,74,75,76,77,78,79,80,81,82,83,84,85,86,87,88,89,90,91,92,93,94,95,96,97,98,99,100],"tree_info":[0,0,0,0,0,0,0,0,0,0,0,0,0,0,0,0,0,0,0,0,0,0,0,0,0,0,0,0,0,0,0,0,0,0,0,0,0,0,0,0,0,0,0,0,0,0,0,0,0,0,0,0,0,0,0,0,0,0,0,0,0,0,0,0,0,0,0,0,0,0,0,0,0,0,0,0,0,0,0,0,0,0,0,0,0,0,0,0,0,0,0,0,0,0,0,0,0,0,0,0],"trees":[{"base_weights":[-0E0,-1.8885449E0,4.7470817E-1,-1.974359E-1,4E-1,-1.415873E0,1.0841889E0,1.2727273E-1,-1E-1,1E0,-1.628866E0,1.3950762E0,-1.072E0,1.6521738E-1,-1.1111112E-1,-1.8554217E0,-2.6086956E-1,-1.2142857E0,1.5705369E0,1.1304348E0,-1.509434E0,-1.9176955E0,4.0000003E-2,-1.4074074E0,1.1304348E0,8.5714287E-1,-1.7391304E0,1.6906946E0,-7.619048E-1,1.5789475E-1,-5E-2,9.3333334E-1,-1.831579E0,-1.9497909E-1,-0E0,-0E0,-1.6521738E-1,1.5789475E-1,-5E-2,-0E0,1.20000005E-1,-1.8095239E-1,-5E-2,-1.2941177E-1,1.7493334E-1,-1.586207E-1,8.235294E-2,1.2727273E-1,-0E0,-0E0,-1.912088E-1],"categories":[],"categories_nodes":[],"categories_segments":[],"categories_sizes":[],"default_left":[0,0,0,0,0,0,0,0,0,0,0,0,0,0,0,0,0,0,0,0,0,0,0,0,0,0,0,0,0,0,0,0,0,0,0,0,0,0,0,0,0,0,0,0,0,0,0,0,0,0,0],"id":0,"left_children":[1,3,5,-1,7,9,11,-1,-1,13,15,17,19,-1,-1,21,23,25,27,29,31,33,-1,35,37,39,41,43,45,-1,-1,47,49,-1,-1,-1,-1,-1,-1,-1,-1,-1,-1,-1,-1,-1,-1,-1,-1,-1,-1],"loss_changes":[3.603961E2,1.6648193E1,3.717027E2,0E0,5.8545456E0,4.2150772E1,1.6472128E2,0E0,0E0,1.1473431E1,2.2063202E1,9.9541565E1,3.1813183E1,0E0,0E0,9.510315E0,1.9935589E1,1.6711182E1,5.74104E1,4.994279E0,2.2562996E1,3.7391052E0,0E0,2.325282E0,4.994279E0,1.0285714E0,9.8342896E-2,3.5649963E1,1.5028494E1,0E0,0E0,1.1878788E0,3.5021439E0,0E0,0E0,0E0,0E0,0E0,0E0,0E0,0E0,0E0,0E0,0E0,0E0,0E0,0E0,0E0,0E0,0E0,0E0],"parents":[2147483647,0,0,1,1,2,2,4,4,5,5,6,6,9,9,10,10,11,11,12,12,15,15,16,16,17,17,18,18,19,19,20,20,21,21,23,23,24,24,25,25,26,26,27,27,28,28,31,31,32,32],"right_children":[2,4,6,-1,8,10,12,-1,-1,14,16,18,20,-1,-1,22,24,26,28,30,32,34,-1,36,38,40,42,44,46,-1,-1,48,50,-1,-1,-1,-1,-1,-1,-1,-1,-1,-1,-1,-1,-1,-1,-1,-1,-1,-1],"split_conditions":[-4.6388376E-1,1.6474903E0,-3.7913868E-1,-1.974359E-1,9.0299964E-1,-1.322906E0,7.5130546E-1,1.2727273E-1,-1E-1,1.4056096E-2,7.329228E-1,-6.2528145E-1,-8.8340497E-1,1.6521738E-1,-1.1111112E-1,1.7166018E0,3.4954518E-1,-8.430086E-1,1.0648443E0,6.437324E-1,-1.2157183E0,1.6409127E0,4.0000003E-2,-1.2878202E0,7.3784584E-1,1.824767E-2,1.162766E0,-1.4777343E0,4.6506837E-1,1.5789475E-1,-5E-2,-4.4467366E-1,-1.4512208E0,-1.9497909E-1,-0E0,-0E0,-1.6521738E-1,1.5789475E-1,-5E-2,-0E0,1.20000005E-1,-1.8095239E-1,-5E-2,-1.2941177E-1,1.7493334E-1,-1.586207E-1,8.235294E-2,1.2727273E-1,-0E0,-0E0,-1.912088E-1],"split_indices":[223,377,384,0,32,103,266,0,0,314,22,319,242,0,0,298,345,268,103,26,371,237,0,3,45,1,23,304,114,0,0,0,49,0,0,0,0,0,0,0,0,0,0,0,0,0,0,0,0,0,0],"split_type":[0,0,0,0,0,0,0,0,0,0,0,0,0,0,0,0,0,0,0,0,0,0,0,0,0,0,0,0,0,0,0,0,0,0,0,0,0,0,0,0,0,0,0,0,0,0,0,0,0,0,0],"sum_hessian":[4E2,7.975E1,3.2025E2,7.7E1,2.75E0,7.775E1,2.425E2,1.75E0,1E0,6E0,7.175E1,2.1225E2,3.025E1,4.75E0,1.25E0,6.125E1,1.05E1,1.3E1,1.9925E2,4.75E0,2.55E1,5.975E1,1.5E0,5.75E0,4.75E0,2.5E0,1.05E1,1.8975E2,9.5E0,3.75E0,1E0,2.75E0,2.275E1,5.875E1,1E0,1E0,4.75E0,3.75E0,1E0,1E0,1.5E0,9.5E0,1E0,3.25E0,1.865E2,6.25E0,3.25E0,1.75E0,1E0,1E0,2.175E1],"tree_param":{"num_deleted":"0","num_feature":"388","num_nodes":"51","size_leaf_vector":"1"}},{"base_weights":[-1.1193154E-3,6.5758735E-1,-1.132751E0,-1.1645691E0,9.982746E-1,4.6276987E-1,-1.5953062E0,8.876659E-1,-1.5841417E0,-1.4644495E0,1.2836899E0,1.21987E0,-1.12511E0,2.1069653E-1,-1.6924025E0,1.5494929E-1,-8.228069E-2,3.178436E-2,-1.7131791E0,7.648673E-2,-1.6590623E0,1.4605373E0,-6.0048103E-1,-1.03676215E-1,1.537519E0,-1.5613225E-1,6.297763E-2,1.37982E-1,-1.09404944E-1,-1.7329562E0,5.054005E-2,-1.5492143E-2,-1.7714219E-1,-1.7441492E-1,-1.658122E-2,1.5248574E0,-1.3346265E-1,-1.2107629E0,1.2591426E-1,1.7034864E-1,-6.0363304E-2,3.6840785E-2,-1.7662686E0,-1.140325E-1,1.5786651E-1,-1.6647927E-1,1.1673434E-1,1.7679637E-2,-1.8006332E-1],"categories":[],"categories_nodes":[],"categories_segments":[],"categories_sizes":[],"default_left":[0,0,0,0,0,0,0,0,0,0,0,0,0,0,0,0,0,0,0,0,0,0,0,0,0,0,0,0,0,0,0,0,0,0,0,0,0,0,0,0,0,0,0,0,0,0,0,0,0],"id":1,"left_children":[1,3,5,7,9,11,13,15,17,19,21,23,25,27,29,-1,-1,-1,31,-1,33,35,37,-1,39,-1,-1,-1,-1,41,-1,-1,-1,-1,-1,43,-1,45,-1,-1,-1,-1,47,-1,-1,-1,-1,-1,-1],"loss_changes":[2.9727588E2,1.576487E2,1.0902728E2,3.5993633E1,1.5153358E2,4.194963E1,2.034314E1,9.719014E0,8.81768E0,1.1065102E1,6.463025E1,1.8321106E1,9.723528E0,1.1736549E1,1.0526062E1,0E0,0E0,0E0,2.604744E0,0E0,2.3894043E0,3.353418E1,2.096059E1,0E0,8.440605E0,0E0,0E0,0E0,0E0,8.108429E0,0E0,0E0,0E0,0E0,0E0,2.642746E1,0E0,1.64162E1,0E0,0E0,0E0,0E0,7.332611E0,0E0,0E0,0E0,0E0,0E0,0E0],"parents":[2147483647,0,0,1,1,2,2,3,3,4,4,5,5,6,6,7,7,8,8,9,9,10,10,11,11,12,12,13,13,14,14,18,18,20,20,21,21,22,22,24,24,29,29,35,35,37,37,42,42],"right_children":[2,4,6,8,10,12,14,16,18,20,22,24,26,28,30,-1,-1,-1,32,-1,34,36,38,-1,40,-1,-1,-1,-1,42,-1,-1,-1,-1,-1,44,-1,46,-1,-1,-1,-1,48,-1,-1,-1,-1,-1,-1],"split_conditions":[3.5377648E-1,-4.2121145E-1,-4.619297E-1,-1.0177583E0,-6.184769E-1,3.4441095E-2,-1.1623615E0,-1.937368E-1,-1.4106764E0,-1.1819912E0,1.0002955E0,-3.4548047E-1,6.6729796E-1,-1.8796661E-1,1.1254203E0,1.5494929E-1,-8.228069E-2,3.178436E-2,-1.4526457E0,7.648673E-2,1.1997409E0,1.2205617E0,8.429588E-1,-1.03676215E-1,8.130467E-1,-1.5613225E-1,6.297763E-2,1.37982E-1,-1.09404944E-1,-2.0920053E0,5.054005E-2,-1.5492143E-2,-1.7714219E-1,-1.7441492E-1,-1.658122E-2,-1.5398003E0,-1.3346265E-1,1.2080106E0,1.2591426E-1,1.7034864E-1,-6.0363304E-2,3.6840785E-2,-1.5526862E0,-1.140325E-1,1.5786651E-1,-1.6647927E-1,1.1673434E-1,1.7679637E-2,-1.8006332E-1],"split_indices":[278,384,239,76,319,181,360,216,23,268,202,384,372,103,148,0,0,0,102,0,293,231,325,0,268,0,0,0,0,203,0,0,0,0,0,304,0,65,0,0,0,0,175,0,0,0,0,0,0],"split_type":[0,0,0,0,0,0,0,0,0,0,0,0,0,0,0,0,0,0,0,0,0,0,0,0,0,0,0,0,0,0,0,0,0,0,0,0,0,0,0,0,0,0,0,0,0,0,0,0,0],"sum_hessian":[3.9680746E2,2.5107765E2,1.4572981E2,3.9168377E1,2.1190927E2,3.275285E1,1.1297696E2,6.459193E0,3.2709183E1,2.1579365E1,1.9032991E2,2.2335201E1,1.0417648E1,5.7044034E0,1.0727256E2,4.7250586E0,1.7341352E0,1.9851582E0,3.0724024E1,1.4973065E0,2.0082058E1,1.7420403E2,1.6125881E1,2.4766688E0,1.9858534E1,8.432004E0,1.9856443E0,2.9782188E0,2.7261848E0,1.0553671E2,1.7358489E0,1.2388573E0,2.9485167E1,1.8840485E1,1.2415724E0,1.707298E2,3.4742272E0,1.240409E1,3.7217906E0,1.861967E1,1.238863E0,1.4899666E0,1.04046745E2,2.979065E0,1.6775073E2,1.066741E1,1.7366798E0,1.7361389E0,1.023106E2],"tree_param":{"num_deleted":"0","num_feature":"388","num_nodes":"49","size_leaf_vector":"1"}},{"base_weights":[-2.0591652E-3,4.891328E-1,-1.3004959E0,-1.0548053E0,9.0353495E-1,-3.159723E-2,-1.5611763E0,1.1688066E0,-1.2822671E0,-1.1542102E0,1.2990655E0,1.0245858E0,-1.2170889E0,-1.6177056E0,8.32224E-2,1.4396051E-2,1.3951193E-1,-1.552476E0,-2.0714894E-2,-1.4901128E0,4.5132512E-1,1.4174398E0,-1.0610899E0,-1.1277608E-1,1.5512182E-1,-1.5544793E-1,5.9513576E-2,5.8886673E-2,-1.6558036E0,-1.6427796E0,3.0068526E-2,-1.2758031E-1,1.3314714E-1,-1.625971E-1,9.723628E-2,-9.8662965E-2,1.4089124E-1,-1.2348186E-1,1.4685249E0,-1.4817022E-1,7.420897E-2,-1.675019E0,-1.7781964E-2,-1.6628788E-1,-5.1636804E-2,-1.09548725E-1,1.5217474E-1,-1.6945565E-1,-1.7906621E-2],"categories":[],"categories_nodes":[],"categories_segments":[],"categories_sizes":[],"default_left":[0,0,0,0,0,0,0,0,0,0,0,0,0,0,0,0,0,0,0,0,0,0,0,0,0,0,0,0,0,0,0,0,0,0,0,0,0,0,0,0,0,0,0,0,0,0,0,0,0],"id":2,"left_children":[1,3,5,7,9,11,13,15,17,19,21,23,25,27,-1,-1,-1,29,31,33,35,37,39,-1,-1,-1,-1,-1,41,43,-1,-1,-1,-1,-1,-1,-1,-1,45,-1,-1,47,-1,-1,-1,-1,-1,-1,-1],"loss_changes":[2.4944452E2,1.8251144E2,3.5458496E1,3.2103546E1,1.8402426E2,2.5431683E1,1.3391983E1,1.2228861E0,1.8842812E1,2.0457321E1,5.418805E1,1.3943209E1,6.7689266E0,8.315384E0,0E0,0E0,0E0,8.1232605E0,1.9995564E1,1.180851E1,1.1186947E1,2.6201141E1,8.363996E0,0E0,0E0,0E0,0E0,0E0,2.1473236E0,1.2902832E-1,0E0,0E0,0E0,0E0,0E0,0E0,0E0,0E0,2.5827911E1,0E0,0E0,2.177185E0,0E0,0E0,0E0,0E0,0E0,0E0,0E0],"parents":[2147483647,0,0,1,1,2,2,3,3,4,4,5,5,6,6,7,7,8,8,9,9,10,10,11,11,12,12,13,13,17,17,18,18,19,19,20,20,21,21,22,22,28,28,29,29,38,38,41,41],"right_children":[2,4,6,8,10,12,14,16,18,20,22,24,26,28,-1,-1,-1,30,32,34,36,38,40,-1,-1,-1,-1,-1,42,44,-1,-1,-1,-1,-1,-1,-1,-1,46,-1,-1,48,-1,-1,-1,-1,-1,-1,-1],"split_conditions":[5.50578E-1,-3.7913868E-1,-5.409499E-1,-1.322906E0,-4.4971052E-1,-3.0885123E-2,1.3646653E0,-7.791989E-1,4.10723E-1,7.8499407E-1,1.0523442E0,-1.2099157E-1,8.822072E-1,-1.5841594E0,8.32224E-2,1.4396051E-2,1.3951193E-1,1.3610133E0,-5.7198435E-2,1.6593606E0,2.3963597E-1,-1.2464663E0,8.281244E-1,-1.1277608E-1,1.5512182E-1,-1.5544793E-1,5.9513576E-2,5.8886673E-2,2.1637287E0,1.2558297E0,3.0068526E-2,-1.2758031E-1,1.3314714E-1,-1.625971E-1,9.723628E-2,-9.8662965E-2,1.4089124E-1,-1.2348186E-1,-1.4777343E0,-1.4817022E-1,7.420897E-2,1.7649516E0,-1.7781964E-2,-1.6628788E-1,-5.1636804E-2,-1.09548725E-1,1.5217474E-1,-1.6945565E-1,-1.7906621E-2],"split_indices":[266,384,278,103,319,267,325,36,82,287,103,148,210,197,0,0,0,172,145,306,145,353,373,0,0,0,0,0,271,88,0,0,0,0,0,0,0,0,304,0,0,198,0,0,0,0,0,0,0],"split_type":[0,0,0,0,0,0,0,0,0,0,0,0,0,0,0,0,0,0,0,0,0,0,0,0,0,0,0,0,0,0,0,0,0,0,0,0,0,0,0,0,0,0,0,0,0,0,0,0,0],"sum_hessian":[3.8911533E2,2.8276868E2,1.0634665E2,5.9509346E1,2.2325934E2,1.8315346E1,8.80313E1,5.138466E0,5.437088E1,3.5685837E1,1.875735E2,9.757703E0,8.557643E0,8.63167E1,1.7146014E0,1.2254021E0,3.9130635E0,4.4589706E1,9.781174E0,2.9571016E1,6.1148186E0,1.7899536E2,8.578141E0,1.693777E0,8.063926E0,7.3343906E0,1.2232517E0,1.2196522E0,8.509705E1,4.2626087E1,1.963621E0,5.1020145E0,4.679159E0,2.8346785E1,1.224232E0,2.4321969E0,3.6826217E0,2.9446034E0,1.7605075E2,7.1002183E0,1.4779233E0,8.387329E1,1.2237625E0,4.141091E1,1.2151757E0,3.181826E0,1.7286893E2,8.266096E1,1.2123284E0],"tree_param":{"num_deleted":"0","num_feature":"388","num_nodes":"49","size_leaf_vector":"1"}},{"base_weights":[-2.922029E-3,-1.4691503E0,3.787308E-1,3.7979335E-1,-1.5562481E0,-1.1034921E0,8.5119885E-1,-8.865074E-2,1.1351148E-1,-1.577516E-1,-1.2286297E-2,3.1264347E-1,-1.3577034E0,1.0994488E0,-8.6458063E-1,1.3983493E-1,-6.807231E-1,-1.4806187E0,2.4531952E-1,1.2476184E0,-7.2008514E-1,9.1798395E-1,-1.2251742E0,-1.316419E-1,1.013966E-1,-1.5221417E0,2.5638212E-2,-1.0433717E-1,1.2559064E-1,-7.782538E-1,1.3411459E0,1.0117109E0,-1.44925E0,1.2729904E-1,-2.0197798E-2,7.510473E-1,-1.4934106E0,-3.749689E-2,-1.5756674E-1,9.0498336E-2,-1.3857415E-1,1.4708892E-1,4.0429737E-2,1.6392212E-2,1.2183558E-1,2.9405227E-2,-1.7259513E-1,9.963156E-2,1.3876061E-2,-1.01731075E-2,-1.5670404E-1],"categories":[],"categories_nodes":[],"categories_segments":[],"categories_sizes":[],"default_left":[0,0,0,0,0,0,0,0,0,0,0,0,0,0,0,0,0,0,0,0,0,0,0,0,0,0,0,0,0,0,0,0,0,0,0,0,0,0,0,0,0,0,0,0,0,0,0,0,0,0,0],"id":3,"left_children":[1,3,5,7,9,11,13,-1,-1,-1,-1,15,17,19,21,-1,23,25,27,29,31,33,35,-1,-1,37,-1,-1,-1,39,41,43,45,-1,-1,47,49,-1,-1,-1,-1,-1,-1,-1,-1,-1,-1,-1,-1,-1,-1],"loss_changes":[2.1248062E2,1.3220139E1,2.11934E2,5.1495643E0,2.0953522E0,2.6798035E1,9.8504196E1,0E0,0E0,0E0,0E0,1.38533535E1,1.2638176E1,5.4958862E1,2.0092407E1,0E0,8.789139E0,4.5737686E0,8.205598E0,3.624588E1,2.1333885E1,2.4584436E0,1.4359253E1,0E0,0E0,2.896469E0,0E0,0E0,0E0,1.0284662E1,2.1035828E1,7.201443E-1,6.0465527E0,0E0,0E0,4.0986037E-1,2.1279297E0,0E0,0E0,0E0,0E0,0E0,0E0,0E0,0E0,0E0,0E0,0E0,0E0,0E0,0E0],"parents":[2147483647,0,0,1,1,2,2,3,3,4,4,5,5,6,6,11,11,12,12,13,13,14,14,16,16,17,17,18,18,19,19,20,20,21,21,22,22,25,25,29,29,30,30,31,31,32,32,35,35,36,36],"right_children":[2,4,6,8,10,12,14,-1,-1,-1,-1,16,18,20,22,-1,24,26,28,30,32,34,36,-1,-1,38,-1,-1,-1,40,42,44,46,-1,-1,48,50,-1,-1,-1,-1,-1,-1,-1,-1,-1,-1,-1,-1,-1,-1],"split_conditions":[-4.251342E-1,-1.337633E0,-3.7913868E-1,-4.1200575E-1,1.6440588E0,-1.0177583E0,7.5130546E-1,-8.865074E-2,1.1351148E-1,-1.577516E-1,-1.2286297E-2,-1.9180413E-2,1.4378729E0,1.2422134E0,-8.8340497E-1,1.3983493E-1,1.0527011E0,1.4280853E0,-2.018472E-1,-6.92116E-1,-1.0685332E0,1.0869887E0,-1.2157183E0,-1.316419E-1,1.013966E-1,-1.1941378E0,2.5638212E-2,-1.0433717E-1,1.2559064E-1,-1.316475E0,6.241909E-1,2.3887832E-1,-7.8355616E-1,1.2729904E-1,-2.0197798E-2,-4.651091E-1,-1.2597247E0,-3.749689E-2,-1.5756674E-1,9.0498336E-2,-1.3857415E-1,1.4708892E-1,4.0429737E-2,1.6392212E-2,1.2183558E-1,2.9405227E-2,-1.7259513E-1,9.963156E-2,1.3876061E-2,-1.01731075E-2,-1.5670404E-1],"split_indices":[223,257,384,85,184,76,266,0,0,0,0,220,345,242,242,0,128,88,68,319,230,55,371,0,0,202,0,0,0,27,202,8,41,0,0,12,190,0,0,0,0,0,0,0,0,0,0,0,0,0,0],"split_type":[0,0,0,0,0,0,0,0,0,0,0,0,0,0,0,0,0,0,0,0,0,0,0,0,0,0,0,0,0,0,0,0,0,0,0,0,0,0,0,0,0,0,0,0,0,0,0,0,0,0,0],"sum_hessian":[3.7771323E2,7.742264E1,3.002906E2,3.331868E0,7.409077E1,7.226037E1,2.2803024E2,1.1799661E0,2.151902E0,7.2908424E1,1.1823413E0,1.0962373E1,6.1297993E1,1.9952141E2,2.8508823E1,5.0429564E0,5.9194164E0,5.7003483E1,4.2945085E0,1.8478795E2,1.4733464E1,4.536626E0,2.3972197E1,4.467005E0,1.4524119E0,5.5793438E1,1.2100468E0,1.8732789E0,2.4212298E0,7.831476E0,1.7695647E2,4.250607E0,1.0482857E1,3.3409665E0,1.1956594E0,2.6498184E0,2.1322378E1,2.8440707E0,5.2949368E1,1.9469949E0,5.8844814E0,1.549303E2,2.2026178E1,1.1844584E0,3.0661488E0,1.4273585E0,9.055498E0,1.4441285E0,1.2056899E0,1.1910948E0,2.0131285E1],"tree_param":{"num_deleted":"0","num_feature":"388","num_nodes":"51","size_leaf_vector":"1"}},{"base_weights":[-2.9448036E-3,-1.4189225E0,3.4551656E-1,-1.4895901E-1,3.601397E-1,-1.1289659E0,7.617592E-1,-4.819956E-2,9.5948875E-2,8.3771235E-1,-1.2692218E0,1.0204636E0,-6.454322E-1,-1.607005E-2,1.17949404E-1,-1.3994612E0,-7.478451E-2,1.1659504E0,-6.884812E-1,-1.2769641E0,3.2697502E-1,8.734632E-3,-1.4395984E0,1.0421901E-1,-1.1885511E-1,-6.553638E-1,1.2607028E0,1.2235905E-1,-1.3634524E0,2.4354984E-1,-1.5099405E-1,-1.2878905E-1,1.057472E0,-1.4712302E-1,-2.3951752E-3,8.6349204E-2,-1.21718995E-1,1.3880661E-1,3.531697E-2,2.7726611E-2,-1.6054472E-1,-8.453812E-2,1.0339055E-1,1.4172319E-1,-6.612004E-2],"categories":[],"categories_nodes":[],"categories_segments":[],"categories_sizes":[],"default_left":[0,0,0,0,0,0,0,0,0,0,0,0,0,0,0,0,0,0,0,0,0,0,0,0,0,0,0,0,0,0,0,0,0,0,0,0,0,0,0,0,0,0,0,0,0],"id":4,"left_children":[1,3,5,-1,7,9,11,-1,-1,13,15,17,19,-1,-1,21,23,25,27,29,31,-1,33,-1,-1,35,37,-1,39,41,-1,-1,43,-1,-1,-1,-1,-1,-1,-1,-1,-1,-1,-1,-1],"loss_changes":[1.8073521E2,9.631149E0,1.8127711E2,0E0,2.263855E0,1.9025444E1,8.433243E1,0E0,0E0,1.8743334E0,9.41288E0,4.9170425E1,2.2713272E1,0E0,0E0,3.4144897E0,1.00362015E1,3.1828552E1,2.2177021E1,8.237202E0,1.9164305E1,0E0,2.3702393E0,0E0,0E0,9.1933365E0,1.928717E1,0E0,5.2961845E0,4.155383E0,0E0,0E0,7.7013435E0,0E0,0E0,0E0,0E0,0E0,0E0,0E0,0E0,0E0,0E0,0E0,0E0],"parents":[2147483647,0,0,1,1,2,2,4,4,5,5,6,6,9,9,10,10,11,11,12,12,15,15,16,16,17,17,18,18,19,19,20,20,22,22,25,25,26,26,28,28,29,29,32,32],"right_children":[2,4,6,-1,8,10,12,-1,-1,14,16,18,20,-1,-1,22,24,26,28,30,32,-1,34,-1,-1,36,38,-1,40,42,-1,-1,44,-1,-1,-1,-1,-1,-1,-1,-1,-1,-1,-1,-1],"split_conditions":[-4.6388376E-1,1.6474903E0,-4.2121145E-1,-1.4895901E-1,-6.026858E-1,-1.3501452E0,6.2797445E-1,-4.819956E-2,9.5948875E-2,-2.1545641E-1,9.119413E-1,1.2422134E0,3.4542742E-1,-1.607005E-2,1.17949404E-1,-2.1547348E0,-9.926725E-1,-6.5658283E-1,-1.5958722E0,-5.140616E-1,-2.956794E-1,8.734632E-3,1.318377E0,1.0421901E-1,-1.1885511E-1,-8.430086E-1,6.241909E-1,1.2235905E-1,-7.8355616E-1,-3.0389288E-1,-1.5099405E-1,-1.2878905E-1,3.5190165E-1,-1.4712302E-1,-2.3951752E-3,8.6349204E-2,-1.21718995E-1,1.3880661E-1,3.531697E-2,2.7726611E-2,-1.6054472E-1,-8.453812E-2,1.0339055E-1,1.4172319E-1,-6.612004E-2],"split_indices":[223,377,384,0,24,289,266,0,0,325,22,242,148,0,0,118,312,319,343,202,247,0,88,0,0,268,202,0,41,30,0,0,190,0,0,0,0,0,0,0,0,0,0,0,0],"split_type":[0,0,0,0,0,0,0,0,0,0,0,0,0,0,0,0,0,0,0,0,0,0,0,0,0,0,0,0,0,0,0,0,0,0,0,0,0,0,0,0,0,0,0,0,0],"sum_hessian":[3.64302E2,7.133978E1,2.9296222E2,6.87708E1,2.5689876E0,6.411861E1,2.2884361E2,1.1495607E0,1.4194269E0,3.937265E0,6.0181343E1,1.9353761E2,3.5305996E1,1.1392124E0,2.7980528E0,5.4109673E1,6.071671E0,1.786467E2,1.4890919E1,2.12148E1,1.4091195E1,1.3914118E0,5.2718258E1,3.063556E0,3.0081148E0,8.541768E0,1.7010493E2,3.673044E0,1.1217875E1,2.8126612E0,1.840214E1,4.1512485E0,9.939946E0,5.1527637E1,1.1906204E0,2.1614654E0,6.3803024E0,1.4870604E2,2.139889E1,1.4231564E0,9.794719E0,1.153617E0,1.6590441E0,8.364455E0,1.5754917E0],"tree_param":{"num_deleted":"0","num_feature":"388","num_nodes":"45","size_leaf_vector":"1"}},{"base_weights":[-3.587496E-3,-9.638408E-1,4.632848E-1,-1.17228806E-1,-1.3851484E0,-1.366132E0,7.075555E-1,-9.281918E-1,8.6602485E-1,8.1377044E-2,-1.4341688E0,-3.9501697E-2,-1.3899867E-1,1.0936376E0,-1.8881969E-1,2.290856E-1,-1.4047109E-1,-1.0762638E-1,1.2001836E0,-8.51074E-2,8.8594206E-2,1.9337734E-2,-1.461052E0,1.2320613E0,-6.6330856E-1,-8.4572756E-1,8.839813E-1,1.1297597E-1,-7.8465134E-1,1.3307115E0,-3.2098975E-2,-1.4719526E-1,-3.8256094E-2,-4.8879433E-1,1.3085295E0,8.167888E-1,-1.2278638E-1,3.5924453E-1,-1.2428615E0,1.1915444E0,-8.3062464E-1,-1.30940555E-2,-9.7535074E-2,1.4097808E-1,1.5737403E-2,-1.13032915E-1,5.9378874E-2,-7.871565E-2,1.366222E-1,1.9280592E-2,1.0020049E-1,1.1865294E-1,-9.2404716E-2,-1.3919687E-1,7.5075455E-2,1.3435994E-1,-8.1735626E-2,-1.2075297E-1,1.6838893E-2],"categories":[],"categories_nodes":[],"categories_segments":[],"categories_sizes":[],"default_left":[0,0,0,0,0,0,0,0,0,0,0,0,0,0,0,0,0,0,0,0,0,0,0,0,0,0,0,0,0,0,0,0,0,0,0,0,0,0,0,0,0,0,0,0,0,0,0,0,0,0,0,0,0,0,0,0,0,0,0],"id":5,"left_children":[1,3,5,7,9,11,13,15,17,19,21,-1,-1,23,25,27,-1,-1,29,-1,-1,-1,31,33,35,37,39,-1,41,43,-1,-1,-1,45,47,49,-1,51,53,55,57,-1,-1,-1,-1,-1,-1,-1,-1,-1,-1,-1,-1,-1,-1,-1,-1,-1,-1],"loss_changes":[1.5742369E2,4.081093E1,1.0655189E2,3.2111237E1,5.6241913E0,1.0358429E-1,7.25715E1,1.245355E1,1.3145372E1,3.3229442E0,3.5284271E0,0E0,0E0,3.639775E1,4.5711437E1,7.529917E0,0E0,0E0,3.6150417E0,0E0,0E0,0E0,2.9623413E-1,1.8531342E1,1.0474117E1,1.9627554E1,1.4025772E1,0E0,3.7259936E-1,1.1679993E0,0E0,0E0,0E0,5.194381E0,1.6847794E1,2.379098E-1,0E0,1.246836E1,1.0073269E1,7.6262207E0,1.8408904E0,0E0,0E0,0E0,0E0,0E0,0E0,0E0,0E0,0E0,0E0,0E0,0E0,0E0,0E0,0E0,0E0,0E0,0E0],"parents":[2147483647,0,0,1,1,2,2,3,3,4,4,5,5,6,6,7,7,8,8,9,9,10,10,13,13,14,14,15,15,18,18,22,22,23,23,24,24,25,25,26,26,28,28,29,29,33,33,34,34,35,35,37,37,38,38,39,39,40,40],"right_children":[2,4,6,8,10,12,14,16,18,20,22,-1,-1,24,26,28,-1,-1,30,-1,-1,-1,32,34,36,38,40,-1,42,44,-1,-1,-1,46,48,50,-1,52,54,56,58,-1,-1,-1,-1,-1,-1,-1,-1,-1,-1,-1,-1,-1,-1,-1,-1,-1,-1],"split_conditions":[-4.299639E-1,-8.930987E-2,-5.4543287E-1,1.7547141E-1,-1.3789561E0,-1.5702735E0,2.8145567E-1,-1.2391205E-1,-6.2887186E-1,2.7480584E-1,-1.9462444E0,-3.9501697E-2,-1.3899867E-1,7.5130546E-1,3.9933863E-1,-6.6874814E-1,-1.4047109E-1,-1.0762638E-1,1.592958E0,-8.51074E-2,8.8594206E-2,1.9337734E-2,1.8868623E0,-4.7169876E-1,-2.460169E-1,-4.9298617E-1,7.4608075E-3,1.1297597E-1,-1.0892572E-1,4.7927555E-1,-3.2098975E-2,-1.4719526E-1,-3.8256094E-2,8.829915E-1,-6.92116E-1,3.9605775E-1,-1.2278638E-1,-2.3836589E-1,1.412332E0,1.1472845E0,4.214877E-1,-1.30940555E-2,-9.7535074E-2,1.4097808E-1,1.5737403E-2,-1.13032915E-1,5.9378874E-2,-7.871565E-2,1.366222E-1,1.9280592E-2,1.0020049E-1,1.1865294E-1,-9.2404716E-2,-1.3919687E-1,7.5075455E-2,1.3435994E-1,-8.1735626E-2,-1.2075297E-1,1.6838893E-2],"split_indices":[304,289,223,325,266,55,55,202,339,66,166,0,0,266,173,101,0,0,83,0,0,0,162,384,190,185,289,0,262,98,0,0,0,22,319,4,0,76,88,190,191,0,0,0,0,0,0,0,0,0,0,0,0,0,0,0,0,0,0],"split_type":[0,0,0,0,0,0,0,0,0,0,0,0,0,0,0,0,0,0,0,0,0,0,0,0,0,0,0,0,0,0,0,0,0,0,0,0,0,0,0,0,0,0,0,0,0,0,0,0,0,0,0,0,0,0,0,0,0,0,0],"sum_hessian":[3.491487E2,1.1387287E2,2.3527583E2,3.826272E1,7.561016E1,2.7173395E1,2.0810245E2,2.0999146E1,1.726357E1,2.424263E0,7.31859E1,1.0724785E0,2.6100918E1,1.4529965E2,6.2802788E1,6.276135E0,1.4723012E1,2.20812E0,1.505545E1,1.0961143E0,1.3281487E0,1.0885739E0,7.209732E1,1.3496498E2,1.033467E1,3.908286E1,2.371993E1,3.262793E0,3.0133417E0,1.3980987E1,1.0744631E0,7.1014725E1,1.0825921E0,5.5127554E0,1.2945222E2,2.7301743E0,7.604496E0,9.711603E0,2.9371256E1,2.0370895E1,3.3490343E0,1.06143E0,1.9519117E0,1.2909521E1,1.0714662E0,3.4337964E0,2.0789592E0,3.1294808E0,1.2632275E2,1.0920606E0,1.6381139E0,5.9507823E0,3.7608209E0,2.7608162E1,1.7630934E0,1.9245378E1,1.1255186E0,2.2800875E0,1.0689468E0],"tree_param":{"num_deleted":"0","num_feature":"388","num_nodes":"59","size_leaf_vector":"1"}},{"base_weights":[-5.069677E-3,5.93008E-1,-6.886926E-1,9.518915E-1,-3.9692822E-1,-1.1292311E0,5.031327E-1,-1.2283265E-1,1.0895414E0,-9.0145993E-1,7.4830157E-1,-1.2496653E0,1.0786209E0,-5.101381E-1,1.0513495E0,-6.7836404E-1,1.2114153E0,-1.2982188E0,2.3779833E-1,1.1361122E0,-1.011545E-1,8.356118E-2,-1.3022653E0,1.16179526E-1,3.393918E-2,-1.2542173E0,9.7425E-1,1.2681469E0,-5.8374816E-1,7.6389484E-2,-1.1999711E-1,1.2679167E0,-1.04527526E-1,-1.4285833E0,1.8909654E-2,9.7577417E-1,-1.08735204E-1,-4.6968643E-2,1.3179384E-1,3.740324E-1,-1.3400815E0,-1.4261313E-1,1.6364476E-2,1.2720302E-2,1.1312325E-1,1.3560872E-1,-3.4357015E-2,4.462201E-2,-1.09285735E-1,1.3215731E-1,-4.8261296E-2,-1.4618297E-1,-3.5421263E-2,-1.3326593E-2,1.1972264E-1,-1.936836E-2,7.573661E-2,-1.3754529E-1,-1.5776498E-2],"categories":[],"categories_nodes":[],"categories_segments":[],"categories_sizes":[],"default_left":[0,0,0,0,0,0,0,0,0,0,0,0,0,0,0,0,0,0,0,0,0,0,0,0,0,0,0,0,0,0,0,0,0,0,0,0,0,0,0,0,0,0,0,0,0,0,0,0,0,0,0,0,0,0,0,0,0,0,0],"id":6,"left_children":[1,3,5,7,9,11,13,-1,15,17,19,21,23,25,27,29,31,33,35,37,-1,-1,39,-1,-1,41,43,45,47,-1,-1,49,-1,51,-1,53,-1,-1,-1,55,57,-1,-1,-1,-1,-1,-1,-1,-1,-1,-1,-1,-1,-1,-1,-1,-1,-1,-1],"loss_changes":[1.369419E2,6.3847153E1,8.2625946E1,4.077552E1,2.8547604E1,3.17715E1,2.435039E1,0E0,2.756842E1,1.5650175E1,1.1590656E1,1.3039764E1,2.588272E-3,1.8589598E1,1.0717533E1,7.421522E0,1.6178452E1,5.181122E0,1.0460993E1,4.416889E0,0E0,0E0,7.263275E0,0E0,0E0,2.8930035E0,6.290889E-1,4.03281E0,2.574501E0,0E0,0E0,1.1354553E1,0E0,3.1817627E-1,0E0,1.805295E0,0E0,0E0,0E0,8.2897544E-1,4.154785E0,0E0,0E0,0E0,0E0,0E0,0E0,0E0,0E0,0E0,0E0,0E0,0E0,0E0,0E0,0E0,0E0,0E0,0E0],"parents":[2147483647,0,0,1,1,2,2,3,3,4,4,5,5,6,6,8,8,9,9,10,10,11,11,12,12,13,13,14,14,15,15,16,16,17,17,18,18,19,19,22,22,25,25,26,26,27,27,28,28,31,31,33,33,35,35,39,39,40,40],"right_children":[2,4,6,8,10,12,14,-1,16,18,20,22,24,26,28,30,32,34,36,38,-1,-1,40,-1,-1,42,44,46,48,-1,-1,50,-1,52,-1,54,-1,-1,-1,56,58,-1,-1,-1,-1,-1,-1,-1,-1,-1,-1,-1,-1,-1,-1,-1,-1,-1,-1],"split_conditions":[8.810536E-2,2.7084145E-1,4.4372123E-1,-4.7626632E-1,5.917685E-1,1.6291896E0,2.4744526E-1,-1.2283265E-1,-4.8852786E-1,8.091076E-1,2.6588923E-1,-2.500635E0,2.0850432E-1,1.0027912E0,5.184419E-1,-5.96499E-1,7.73655E-1,1.1981275E0,-2.1719418E-1,-7.4280715E-1,-1.011545E-1,8.356118E-2,-2.248195E0,1.16179526E-1,3.393918E-2,6.857836E-1,1.8719275E-1,1.562318E0,-1.0180757E-1,7.6389484E-2,-1.1999711E-1,1.309161E0,-1.04527526E-1,1.847772E0,1.8909654E-2,-1.4764796E-1,-1.08735204E-1,-4.6968643E-2,1.3179384E-1,1.0773542E0,1.412332E0,-1.4261313E-1,1.6364476E-2,1.2720302E-2,1.1312325E-1,1.3560872E-1,-3.4357015E-2,4.462201E-2,-1.09285735E-1,1.3215731E-1,-4.8261296E-2,-1.4618297E-1,-3.5421263E-2,-1.3326593E-2,1.1972264E-1,-1.936836E-2,7.573661E-2,-1.3754529E-1,-1.5776498E-2],"split_indices":[289,41,156,223,82,117,88,0,384,9,266,306,7,349,185,193,384,37,103,1,0,0,277,0,0,20,22,125,35,0,0,266,0,288,0,88,0,0,0,16,88,0,0,0,0,0,0,0,0,0,0,0,0,0,0,0,0,0,0],"split_type":[0,0,0,0,0,0,0,0,0,0,0,0,0,0,0,0,0,0,0,0,0,0,0,0,0,0,0,0,0,0,0,0,0,0,0,0,0,0,0,0,0,0,0,0,0,0,0,0,0,0,0,0,0,0,0,0,0,0,0],"sum_hessian":[3.3293732E2,1.7765009E2,1.5528725E2,1.3041054E2,4.7239548E1,1.13417046E2,4.18702E1,7.274067E0,1.2313647E2,3.2940464E1,1.4299086E1,1.07961914E2,5.455129E0,1.4724438E1,2.7145765E1,7.6467295E0,1.1548973E2,2.4328331E1,8.612133E0,1.2007471E1,2.2916145E0,2.2900238E0,1.0567189E2,4.3896027E0,1.0655267E0,9.911275E0,4.8131633E0,2.4166016E1,2.9797482E0,1.9076152E0,5.7391143E0,1.1309627E2,2.3934689E0,2.2404085E1,1.9242465E0,5.7009344E0,2.9111984E0,1.0602964E0,1.0947174E1,2.1351497E0,1.0353674E2,8.834296E0,1.0769788E0,1.0355949E0,3.7775683E0,2.3066069E1,1.0999488E0,1.0265282E0,1.95322E0,1.0997054E2,3.1257257E0,2.1381786E1,1.0222988E0,1.0151663E0,4.685768E0,1.0600129E0,1.0751367E0,1.0037059E2,3.1661534E0],"tree_param":{"num_deleted":"0","num_feature":"388","num_nodes":"59","size_leaf_vector":"1"}},{"base_weights":[-5.4674316E-3,5.525656E-1,-6.7437655E-1,9.160961E-1,-5.79555E-1,-1.1445477E0,2.2614205E-1,1.0830326E0,-8.3622235E-1,3.6470512E-1,-1.259728E0,-1.2541105E0,2.8609768E-1,8.331722E-1,-9.1130745E-1,1.1426575E0,-1.06253244E-1,-1.3381673E-1,9.5835835E-2,-1.0425579E-1,8.330086E-1,7.833764E-2,-1.3841416E-1,5.0062615E-2,-1.2961706E0,1.0032924E-1,-7.178855E-1,1.0836022E0,-5.426199E-1,-1.2294196E0,8.332035E-2,1.2051693E0,-5.668882E-1,1.1676604E0,-5.047526E-1,-1.323204E0,-1.0196599E-2,-8.6466014E-2,-1.5774362E-2,-6.642832E-2,1.2013167E0,5.6616843E-2,-1.0013417E-1,1.7724901E-2,-1.3377076E-1,1.2477738E-1,-9.2000335E-2,7.184547E-2,-1.0973307E-1,1.2428166E-1,2.4780653E-2,-9.604343E-2,3.4171544E-2,-1.3432246E-1,5.2795983E-3,1.2983413E-1,-3.2019366E-2],"categories":[],"categories_nodes":[],"categories_segments":[],"categories_sizes":[],"default_left":[0,0,0,0,0,0,0,0,0,0,0,0,0,0,0,0,0,0,0,0,0,0,0,0,0,0,0,0,0,0,0,0,0,0,0,0,0,0,0,0,0,0,0,0,0,0,0,0,0,0,0,0,0,0,0,0,0],"id":7,"left_children":[1,3,5,7,9,11,13,15,17,19,21,23,25,27,29,31,-1,-1,-1,-1,33,-1,-1,-1,35,-1,37,39,41,43,-1,45,47,49,51,53,-1,-1,-1,-1,55,-1,-1,-1,-1,-1,-1,-1,-1,-1,-1,-1,-1,-1,-1,-1,-1],"loss_changes":[1.1879913E2,7.194379E1,6.15446E1,3.9440094E1,2.7940035E1,1.5290611E1,3.561815E1,1.6656143E1,1.2111769E1,1.3186417E1,7.4635124E0,7.1931915E0,6.1859283E0,1.2109619E1,1.1038609E1,1.3285553E1,0E0,0E0,0E0,0E0,7.1166534E0,0E0,0E0,0E0,2.6696777E0,0E0,1.7156982E-1,6.68758E0,3.5251071E0,2.6234703E0,0E0,1.1477493E1,4.088362E0,5.191555E-1,1.7228358E0,2.4088593E0,0E0,0E0,0E0,0E0,4.4273415E0,0E0,0E0,0E0,0E0,0E0,0E0,0E0,0E0,0E0,0E0,0E0,0E0,0E0,0E0,0E0,0E0],"parents":[2147483647,0,0,1,1,2,2,3,3,4,4,5,5,6,6,7,7,8,8,9,9,10,10,11,11,12,12,13,13,14,14,15,15,20,20,24,24,26,26,27,27,28,28,29,29,31,31,32,32,33,33,34,34,35,35,40,40],"right_children":[2,4,6,8,10,12,14,16,18,20,22,24,26,28,30,32,-1,-1,-1,-1,34,-1,-1,-1,36,-1,38,40,42,44,-1,46,48,50,52,54,-1,-1,-1,-1,56,-1,-1,-1,-1,-1,-1,-1,-1,-1,-1,-1,-1,-1,-1,-1,-1],"split_conditions":[-2.4728326E-2,4.036611E-1,2.6910388E-1,7.587507E-1,-1.8767186E-1,1.1073816E0,1.2596826E-1,1.2450746E0,8.952396E-1,-7.8875595E-1,-2.5164037E0,-1.7283661E0,-7.0461535E-1,5.716926E-1,1.3636523E0,1.3977689E0,-1.06253244E-1,-1.3381673E-1,9.5835835E-2,-1.0425579E-1,4.9542078E-1,7.833764E-2,-1.3841416E-1,5.0062615E-2,1.9412472E0,1.0032924E-1,5.3617555E-1,-1.0665326E0,-1.4420875E0,-1.6608545E0,8.332035E-2,7.73655E-1,-4.3806162E-1,4.3240836E-1,3.5120958E-1,2.075943E0,-1.0196599E-2,-8.6466014E-2,-1.5774362E-2,-6.642832E-2,1.1665034E0,5.6616843E-2,-1.0013417E-1,1.7724901E-2,-1.3377076E-1,1.2477738E-1,-9.2000335E-2,7.184547E-2,-1.0973307E-1,1.2428166E-1,2.4780653E-2,-9.604343E-2,3.4171544E-2,-1.3432246E-1,5.2795983E-3,1.2983413E-1,-3.2019366E-2],"split_indices":[266,55,208,165,289,349,267,231,111,134,161,197,149,242,73,41,0,0,0,0,315,0,0,0,277,0,134,353,66,192,0,384,108,185,37,183,0,0,0,0,202,0,0,0,0,0,0,0,0,0,0,0,0,0,0,0,0],"split_type":[0,0,0,0,0,0,0,0,0,0,0,0,0,0,0,0,0,0,0,0,0,0,0,0,0,0,0,0,0,0,0,0,0,0,0,0,0,0,0,0,0,0,0,0,0,0,0,0,0,0,0,0,0,0,0,0,0],"sum_hessian":[3.162648E2,1.7251732E2,1.437475E2,1.3072997E2,4.1787342E1,9.42615E1,4.9486E1,1.1970782E2,1.1022155E1,1.769115E1,2.4096193E1,8.7670815E1,6.590678E0,3.2440678E1,1.7045322E1,1.16925896E2,2.7819166E0,8.811815E0,2.2103398E0,4.111064E0,1.3580087E1,1.0790834E0,2.3017109E1,1.7970172E0,8.5873795E1,3.8448207E0,2.7458577E0,2.7624653E1,4.8160257E0,1.46662E1,2.3791223E0,1.130858E2,3.840096E0,1.0964405E1,2.6156812E0,8.3867256E1,2.006544E0,1.744975E0,1.0008827E0,1.4500725E0,2.617458E1,1.3408332E0,3.4751925E0,1.0028095E0,1.366339E1,1.1126801E2,1.8177865E0,1.0182577E0,2.8218381E0,9.811647E0,1.1527574E0,1.6128132E0,1.0028679E0,8.268797E1,1.1792816E0,2.4743402E1,1.4311769E0],"tree_param":{"num_deleted":"0","num_feature":"388","num_nodes":"57","size_leaf_vector":"1"}},{"base_weights":[-6.5502007E-3,-8.5493964E-1,4.0122962E-1,-1.1852731E-1,-1.2282668E0,-1.2214915E0,6.1180264E-1,-8.3047444E-1,7.3967516E-1,1.1554105E-1,-1.2772855E0,-3.742784E-2,-1.2453803E-1,9.5615417E-1,-1.7215458E-1,3.4893316E-1,-1.2010273E0,-9.363885E-2,1.0417639E0,-5.431996E-2,7.544237E-2,-8.911679E-3,-1.3029398E0,1.0775828E0,-5.536341E-1,7.5325674E-1,-7.62248E-1,-7.945025E-2,9.9699855E-2,-1.26464E-1,-1.922099E-2,1.2082765E-1,-1.0688919E-2,-1.3142708E-1,-3.5619404E-2,1.135775E0,-9.378395E-1,7.34659E-1,-1.07832246E-1,-9.3855405E-1,1.134824E0,8.210016E-1,-1.0597285E0,-3.721558E-2,1.2001824E-1,-9.936625E-3,-1.20101444E-1,8.803517E-2,1.8569067E-2,-1.869272E-2,-1.1173892E-1,-1.7192943E-2,1.2468908E-1,1.1166842E-1,-2.543847E-2,6.4889334E-2,-1.222495E-1],"categories":[],"categories_nodes":[],"categories_segments":[],"categories_sizes":[],"default_left":[0,0,0,0,0,0,0,0,0,0,0,0,0,0,0,0,0,0,0,0,0,0,0,0,0,0,0,0,0,0,0,0,0,0,0,0,0,0,0,0,0,0,0,0,0,0,0,0,0,0,0,0,0,0,0,0,0],"id":8,"left_children":[1,3,5,7,9,11,13,15,17,19,21,-1,-1,23,25,27,29,-1,31,-1,-1,-1,33,35,37,39,41,-1,-1,-1,-1,-1,-1,-1,-1,43,45,47,-1,49,51,53,55,-1,-1,-1,-1,-1,-1,-1,-1,-1,-1,-1,-1,-1,-1],"loss_changes":[1.0426429E2,2.6750671E1,7.030284E1,2.1399384E1,4.416954E0,1.3832092E-2,4.89842E1,8.750975E0,9.053216E0,1.7557364E0,1.7925186E0,0E0,0E0,2.3660263E1,3.1175964E1,4.7437735E0,7.023239E-1,0E0,2.8051052E0,0E0,0E0,0E0,1.8858337E-1,1.4761078E1,7.568924E0,1.5475458E1,1.7220858E1,0E0,0E0,0E0,0E0,0E0,0E0,0E0,0E0,1.1513947E1,7.246766E-1,1.1615598E-1,0E0,4.1690493E-1,2.9481125E0,2.2092738E0,9.042324E0,0E0,0E0,0E0,0E0,0E0,0E0,0E0,0E0,0E0,0E0,0E0,0E0,0E0,0E0],"parents":[2147483647,0,0,1,1,2,2,3,3,4,4,5,5,6,6,7,7,8,8,9,9,10,10,13,13,14,14,15,15,16,16,18,18,22,22,23,23,24,24,25,25,26,26,35,35,36,36,37,37,39,39,40,40,41,41,42,42],"right_children":[2,4,6,8,10,12,14,16,18,20,22,-1,-1,24,26,28,30,-1,32,-1,-1,-1,34,36,38,40,42,-1,-1,-1,-1,-1,-1,-1,-1,44,46,48,-1,50,52,54,56,-1,-1,-1,-1,-1,-1,-1,-1,-1,-1,-1,-1,-1,-1],"split_conditions":[-4.299639E-1,-8.930987E-2,-5.4543287E-1,1.7547141E-1,-1.3789561E0,-9.1368115E-1,2.8145567E-1,-3.488473E-1,-6.2887186E-1,1.1374569E0,-1.8309678E0,-3.742784E-2,-1.2453803E-1,7.5130546E-1,-2.4571288E-1,-6.0207325E-1,1.9233763E0,-9.363885E-2,4.2873853E-1,-5.431996E-2,7.544237E-2,-8.911679E-3,1.5700163E0,1.4944512E0,-2.460169E-1,1.8368188E-1,-1.4014585E0,-7.945025E-2,9.9699855E-2,-1.26464E-1,-1.922099E-2,1.2082765E-1,-1.0688919E-2,-1.3142708E-1,-3.5619404E-2,-4.7169876E-1,-2.926902E-1,-4.6747822E-1,-1.07832246E-1,-1.4742585E-1,-1.5089967E0,5.173026E-1,-1.726014E0,-3.721558E-2,1.2001824E-1,-9.936625E-3,-1.20101444E-1,8.803517E-2,1.8569067E-2,-1.869272E-2,-1.1173892E-1,-1.7192943E-2,1.2468908E-1,1.1166842E-1,-2.543847E-2,6.4889334E-2,-1.222495E-1],"split_indices":[304,289,223,325,266,103,55,202,339,89,166,0,0,266,193,20,305,0,190,0,0,0,140,41,190,129,379,0,0,0,0,0,0,0,0,384,208,166,0,350,1,41,119,0,0,0,0,0,0,0,0,0,0,0,0,0,0],"split_type":[0,0,0,0,0,0,0,0,0,0,0,0,0,0,0,0,0,0,0,0,0,0,0,0,0,0,0,0,0,0,0,0,0,0,0,0,0,0,0,0,0,0,0,0,0,0,0,0,0,0,0,0,0,0,0,0,0],"sum_hessian":[2.993886E2,9.683207E1,2.0255653E2,3.3018467E1,6.3813602E1,2.271432E1,1.7984221E2,1.8064686E1,1.4953782E1,2.1980715E0,6.1615532E1,1.0799975E0,2.1634323E1,1.2480308E2,5.5039127E1,4.3327174E0,1.3731968E1,1.9629781E0,1.2990804E1,1.1559539E0,1.0421176E0,1.3968102E0,6.021872E1,1.15777626E2,9.02545E0,2.1322971E1,3.3716156E1,1.4855961E0,2.8471212E0,1.2678893E1,1.0530747E0,1.1300708E1,1.6900959E0,5.9122925E1,1.0957944E0,1.1295275E2,2.8248768E0,2.4962068E0,6.529243E0,3.6554656E0,1.7667505E1,5.0546217E0,2.8661535E1,4.4311304E0,1.0852162E2,1.0039301E0,1.8209466E0,1.4956288E0,1.0005779E0,1.0956793E0,2.5597863E0,1.3532914E0,1.6314215E1,3.9344287E0,1.120193E0,2.2331061E0,2.642843E1],"tree_param":{"num_deleted":"0","num_feature":"388","num_nodes":"57","size_leaf_vector":"1"}},{"base_weights":[-7.931688E-3,-8.36561E-1,3.8432673E-1,-1.1842374E0,8.931204E-2,7.50266E-1,-4.289477E-1,-1.2310523E0,7.170481E-2,6.9152313E-1,-1.007515E0,9.3657076E-1,-6.097012E-1,3.9010707E-1,-9.875388E-1,-1.2605902E0,2.8797483E-2,-9.02763E-2,9.910695E-1,-1.1931504E-1,2.6652848E-2,1.0268409E0,-8.112401E-1,-1.0263427E0,6.619794E-1,9.486282E-1,-7.502348E-1,-1.1148976E0,6.577762E-2,-1.2799281E-1,-3.170645E-2,1.1529046E0,-3.5394497E-2,-4.2844948E-1,1.0982187E0,5.0457533E-2,-1.2228417E-1,-1.17565334E-1,2.9454533E-2,9.865204E-2,-2.4030782E-2,1.1123048E0,-8.5296735E-2,-1.0574228E0,5.4988887E-2,6.3526906E-2,-1.2167327E0,1.2132903E-1,2.0670308E-2,-1.0480572E-1,8.7339394E-2,-8.606733E-2,1.1511487E-1,-3.6719765E-3,1.1945398E-1,-2.0359397E-2,-1.157394E-1,4.9266774E-2,-1.2913114E-1],"categories":[],"categories_nodes":[],"categories_segments":[],"categories_sizes":[],"default_left":[0,0,0,0,0,0,0,0,0,0,0,0,0,0,0,0,0,0,0,0,0,0,0,0,0,0,0,0,0,0,0,0,0,0,0,0,0,0,0,0,0,0,0,0,0,0,0,0,0,0,0,0,0,0,0,0,0,0,0],"id":9,"left_children":[1,3,5,7,9,11,13,15,-1,17,19,21,23,25,27,29,-1,-1,31,-1,-1,33,35,37,39,41,43,45,-1,-1,-1,47,-1,49,51,-1,-1,-1,-1,-1,-1,53,-1,55,-1,-1,57,-1,-1,-1,-1,-1,-1,-1,-1,-1,-1,-1,-1],"loss_changes":[9.264731E1,2.958451E1,5.7900562E1,6.8148117E0,1.7824024E1,3.4470665E1,2.814512E1,3.2980194E0,0E0,9.171952E0,2.5879345E0,1.9461472E1,9.541588E0,1.6837261E1,8.351688E0,7.683182E-1,0E0,0E0,3.6878233E0,0E0,0E0,1.2178574E1,4.060011E0,2.9083424E0,1.6237884E0,6.0904036E0,4.128854E0,6.853302E0,0E0,0E0,0E0,5.3108215E-1,0E0,5.746373E0,1.2159973E1,0E0,0E0,0E0,0E0,0E0,0E0,1.5952282E0,0E0,4.0683174E-1,0E0,0E0,4.7899666E0,0E0,0E0,0E0,0E0,0E0,0E0,0E0,0E0,0E0,0E0,0E0,0E0],"parents":[2147483647,0,0,1,1,2,2,3,3,4,4,5,5,6,6,7,7,9,9,10,10,11,11,12,12,13,13,14,14,15,15,18,18,21,21,22,22,23,23,24,24,25,25,26,26,27,27,31,31,33,33,34,34,41,41,43,43,46,46],"right_children":[2,4,6,8,10,12,14,16,-1,18,20,22,24,26,28,30,-1,-1,32,-1,-1,34,36,38,40,42,44,46,-1,-1,-1,48,-1,50,52,-1,-1,-1,-1,-1,-1,54,-1,56,-1,-1,58,-1,-1,-1,-1,-1,-1,-1,-1,-1,-1,-1,-1],"split_conditions":[-4.5088202E-1,3.1786373E-1,2.7084145E-1,1.8212887E0,1.714238E-1,7.5130546E-1,-1.5911587E-1,1.6477985E0,7.170481E-2,-8.0072826E-1,1.0414723E0,8.831053E-1,4.7879684E-1,-6.0781427E-2,1.412332E0,1.1686733E0,2.8797483E-2,-9.02763E-2,5.738035E-1,-1.1931504E-1,2.6652848E-2,-6.92116E-1,-8.728215E-1,1.028104E0,4.0766618E-1,1.0479274E0,9.2888486E-1,-1.8708189E0,6.577762E-2,-1.2799281E-1,-3.170645E-2,8.9133006E-1,-3.5394497E-2,4.0631357E-1,-1.4614981E0,5.0457533E-2,-1.2228417E-1,-1.17565334E-1,2.9454533E-2,9.865204E-2,-2.4030782E-2,-9.305219E-1,-8.5296735E-2,-1.0761629E0,5.4988887E-2,6.3526906E-2,-1.4744517E0,1.2132903E-1,2.0670308E-2,-1.0480572E-1,8.7339394E-2,-8.606733E-2,1.1511487E-1,-3.6719765E-3,1.1945398E-1,-2.0359397E-2,-1.157394E-1,4.9266774E-2,-1.2913114E-1],"split_indices":[208,163,41,373,55,266,193,252,0,282,160,289,129,202,88,325,0,0,175,0,0,319,136,232,364,305,325,281,0,0,0,64,0,99,20,0,0,0,0,0,0,11,0,139,0,0,266,0,0,0,0,0,0,0,0,0,0,0,0],"split_type":[0,0,0,0,0,0,0,0,0,0,0,0,0,0,0,0,0,0,0,0,0,0,0,0,0,0,0,0,0,0,0,0,0,0,0,0,0,0,0,0,0,0,0,0,0,0,0,0,0,0,0,0,0,0,0,0,0,0,0],"sum_hessian":[2.830472E2,9.057618E1,1.9247102E2,6.56462E1,2.4929977E1,1.3279591E2,5.9675106E1,6.44127E1,1.2335057E0,1.6332285E1,8.597692E0,1.1706963E2,1.5726281E1,2.4318636E1,3.5356472E1,6.3350952E1,1.0617431E0,2.2647517E0,1.40675335E1,7.559694E0,1.0379975E0,1.11712456E2,5.3571796E0,1.1990688E1,3.7355928E0,1.6436447E1,7.8821883E0,3.3115482E1,2.2409892E0,6.1729248E1,1.6217033E0,1.2684177E1,1.3833569E0,4.989107E0,1.0672334E2,1.2226635E0,4.1345162E0,1.0871722E1,1.1189661E0,2.6787324E0,1.0568606E0,1.5418282E1,1.0181656E0,6.52675E0,1.3554385E0,1.5328737E0,3.1582607E1,1.1657906E1,1.0262718E0,3.512357E0,1.47675E0,2.4063375E0,1.0431701E2,1.0667425E0,1.435154E1,1.0023612E0,5.524389E0,1.0859408E0,3.0496666E1],"tree_param":{"num_deleted":"0","num_feature":"388","num_nodes":"59","size_leaf_vector":"1"}},{"base_weights":[-8.584492E-3,5.057153E-1,-6.0276324E-1,8.190107E-1,-3.3819953E-1,-9.5109457E-1,5.195842E-1,-1.0593444E-1,9.361722E-1,-7.7249086E-1,6.500044E-1,-1.0449955E0,8.714382E-1,-5.77201E-1,1.0414376E0,-6.023711E-1,1.0458356E0,-9.744407E-1,8.3276495E-2,9.9183816E-1,-8.5129164E-2,-1.1654608E0,-2.1051038E-3,9.665882E-2,2.5216658E-2,7.147059E-1,-1.24910094E-1,-5.1267534E-2,1.1696306E0,6.2832355E-2,-1.0536462E-1,-4.623761E-1,1.1222286E0,-1.1919066E0,8.088099E-2,-2.4898458E-2,1.1544029E-1,-1.0628846E-1,-1.2298789E0,8.247662E-1,-9.21928E-1,8.76171E-2,1.3360751E-2,2.202601E-2,1.2094561E-1,-1.0135762E-1,7.585158E-2,1.173834E-1,-3.937727E-2,1.0798815E-2,-1.2598674E-1,7.1214065E-2,-8.7358445E-2,-1.2488754E-1,-4.0020156E-3,-1.0156593E-2,1.0591068E-1,-2.0226141E-2,-1.0392692E-1],"categories":[],"categories_nodes":[],"categories_segments":[],"categories_sizes":[],"default_left":[0,0,0,0,0,0,0,0,0,0,0,0,0,0,0,0,0,0,0,0,0,0,0,0,0,0,0,0,0,0,0,0,0,0,0,0,0,0,0,0,0,0,0,0,0,0,0,0,0,0,0,0,0,0,0,0,0,0,0],"id":10,"left_children":[1,3,5,7,9,11,13,-1,15,17,19,21,23,25,27,29,31,33,-1,35,-1,37,39,-1,-1,41,-1,-1,43,-1,-1,45,47,49,-1,-1,-1,51,53,55,57,-1,-1,-1,-1,-1,-1,-1,-1,-1,-1,-1,-1,-1,-1,-1,-1,-1,-1],"loss_changes":[8.2133514E1,3.837101E1,4.924398E1,2.417952E1,1.7546564E1,1.7256851E1,1.7875593E1,0E0,1.7453209E1,9.903753E0,7.3455596E0,1.1466484E1,6.4152956E-2,9.897587E0,4.7449913E0,4.698946E0,1.1284866E1,1.0803783E1,0E0,2.4620152E0,0E0,5.452858E0,8.712077E0,0E0,0E0,2.7564E-1,0E0,0E0,4.7187996E-1,0E0,0E0,4.2769E0,7.442856E0,2.1696663E0,0E0,0E0,0E0,4.2558346E0,1.6915665E0,1.4172878E0,2.4761724E-1,0E0,0E0,0E0,0E0,0E0,0E0,0E0,0E0,0E0,0E0,0E0,0E0,0E0,0E0,0E0,0E0,0E0,0E0],"parents":[2147483647,0,0,1,1,2,2,3,3,4,4,5,5,6,6,8,8,9,9,10,10,11,11,12,12,13,13,14,14,15,15,16,16,17,17,19,19,21,21,22,22,25,25,28,28,31,31,32,32,33,33,37,37,38,38,39,39,40,40],"right_children":[2,4,6,8,10,12,14,-1,16,18,20,22,24,26,28,30,32,34,-1,36,-1,38,40,-1,-1,42,-1,-1,44,-1,-1,46,48,50,-1,-1,-1,52,54,56,58,-1,-1,-1,-1,-1,-1,-1,-1,-1,-1,-1,-1,-1,-1,-1,-1,-1,-1],"split_conditions":[8.810536E-2,2.7084145E-1,6.1242217E-1,-4.7626632E-1,5.917685E-1,1.7218527E0,2.4744526E-1,-1.0593444E-1,-4.8852786E-1,1.2894193E0,2.6588923E-1,8.266545E-1,5.1797926E-1,-3.5079154E-1,-4.1379237E-1,-5.96499E-1,-6.92116E-1,1.4280853E0,8.3276495E-2,-5.124333E-1,-8.5129164E-2,-1.3202565E0,-2.1083723E-1,9.665882E-2,2.5216658E-2,-5.712791E-2,-1.24910094E-1,-5.1267534E-2,-7.724519E-1,6.2832355E-2,-1.0536462E-1,7.822634E-1,1.309161E0,-1.6831741E0,8.088099E-2,-2.4898458E-2,1.1544029E-1,3.4222385E-1,1.6791809E0,-2.0606014E-1,-6.195489E-1,8.76171E-2,1.3360751E-2,2.202601E-2,1.2094561E-1,-1.0135762E-1,7.585158E-2,1.173834E-1,-3.937727E-2,1.0798815E-2,-1.2598674E-1,7.1214065E-2,-8.7358445E-2,-1.2488754E-1,-4.0020156E-3,-1.0156593E-2,1.0591068E-1,-2.0226141E-2,-1.0392692E-1],"split_indices":[289,41,156,223,82,117,88,0,384,325,266,349,21,193,304,193,319,88,0,69,0,154,314,0,0,119,0,0,298,0,0,99,266,185,0,0,0,289,298,80,95,0,0,0,0,0,0,0,0,0,0,0,0,0,0,0,0,0,0],"split_type":[0,0,0,0,0,0,0,0,0,0,0,0,0,0,0,0,0,0,0,0,0,0,0,0,0,0,0,0,0,0,0,0,0,0,0,0,0,0,0,0,0,0,0,0,0,0,0,0,0,0,0,0,0,0,0,0,0,0,0],"sum_hessian":[2.667763E2,1.4308015E2,1.2369615E2,1.04365105E2,3.8715046E1,9.4515076E1,2.9181076E1,5.6553726E0,9.870973E1,2.704689E1,1.1668156E1,9.028977E1,4.2253036E0,9.373863E0,1.9807215E1,6.2687197E0,9.244101E1,2.4373537E1,2.6733537E0,9.780544E0,1.8876107E0,8.0834915E1,9.454854E0,3.1764073E0,1.0488962E0,3.1853905E0,6.1884727E0,1.2807807E0,1.8526434E1,1.5766447E0,4.692075E0,4.2129526E0,8.822806E1,2.2019846E1,2.3536906E0,1.0713732E0,8.709171E0,4.7863865E0,7.604853E1,5.0334215E0,4.421433E0,2.0953798E0,1.0900105E0,1.008808E0,1.7517626E1,3.0195246E0,1.1934279E0,8.5541885E1,2.6861742E0,1.0647752E0,2.095507E1,2.350805E0,2.4355812E0,7.480465E1,1.2438754E0,1.1306454E0,3.9027758E0,1.001686E0,3.4197469E0],"tree_param":{"num_deleted":"0","num_feature":"388","num_nodes":"59","size_leaf_vector":"1"}},{"base_weights":[-8.4181605E-3,5.963291E-1,-4.877036E-1,-1.0579184E0,7.480175E-1,-9.667533E-1,2.747796E-1,-1.11170486E-1,-3.1647686E-2,-3.873847E-1,9.789196E-1,2.7612454E-1,-1.0715426E0,-7.5227636E-1,6.599595E-1,6.298161E-1,-9.110885E-1,1.0848725E0,-4.699292E-2,-7.709084E-2,9.2736915E-2,-1.1589288E0,1.519336E-1,-1.0486889E0,8.4828846E-2,-8.29976E-1,8.844298E-1,-6.488059E-2,9.8898165E-2,-1.10762574E-1,5.219496E-2,1.1261224E0,-3.3551466E-2,7.7678514E-1,-1.0173177E-1,3.976054E-2,-1.1944115E0,-8.8653274E-2,8.819057E-2,3.2446507E-2,-1.1965513E-1,-1.0479354E-1,1.06441155E-2,1.0159096E0,-8.328052E-2,-2.5878986E-2,1.16155244E-1,1.00649536E-1,-7.982222E-3,-1.2235295E-1,4.1782446E-2,-4.798535E-2,1.082983E-1],"categories":[],"categories_nodes":[],"categories_segments":[],"categories_sizes":[],"default_left":[0,0,0,0,0,0,0,0,0,0,0,0,0,0,0,0,0,0,0,0,0,0,0,0,0,0,0,0,0,0,0,0,0,0,0,0,0,0,0,0,0,0,0,0,0,0,0,0,0,0,0,0,0],"id":11,"left_children":[1,3,5,7,9,11,13,-1,-1,15,17,19,21,23,25,27,29,31,33,-1,-1,35,37,39,-1,41,43,-1,-1,-1,-1,45,-1,47,-1,-1,49,-1,-1,-1,-1,-1,-1,51,-1,-1,-1,-1,-1,-1,-1,-1,-1],"loss_changes":[7.31718E1,2.88008E1,5.170413E1,3.858471E-2,2.7338535E1,1.158876E1,2.2300507E1,0E0,0E0,1.0213211E1,9.370529E0,5.8543296E0,8.747536E0,8.2432E0,1.4317999E1,3.7374449E0,4.0575094E0,4.933464E0,7.9716835E0,0E0,0E0,4.6139755E0,5.50339E0,3.134366E0,0E0,1.3022342E0,8.925051E0,0E0,0E0,0E0,0E0,4.0193634E0,0E0,1.148046E0,0E0,0E0,3.9627075E0,0E0,0E0,0E0,0E0,0E0,0E0,3.8994637E0,0E0,0E0,0E0,0E0,0E0,0E0,0E0,0E0,0E0],"parents":[2147483647,0,0,1,1,2,2,3,3,4,4,5,5,6,6,9,9,10,10,11,11,12,12,13,13,14,14,15,15,16,16,17,17,18,18,21,21,22,22,23,23,25,25,26,26,31,31,33,33,36,36,43,43],"right_children":[2,4,6,8,10,12,14,-1,-1,16,18,20,22,24,26,28,30,32,34,-1,-1,36,38,40,-1,42,44,-1,-1,-1,-1,46,-1,48,-1,-1,50,-1,-1,-1,-1,-1,-1,52,-1,-1,-1,-1,-1,-1,-1,-1,-1],"split_conditions":[-1.8197885E-1,-6.92116E-1,2.1344393E-1,1.2690886E0,-3.4548047E-1,-1.2525208E0,-5.717037E-1,-1.11170486E-1,-3.1647686E-2,-4.037324E-1,6.7510444E-1,5.1549785E-2,1.462352E0,1.3494986E0,-8.3490205E-1,-4.8060292E-1,1.0222969E0,1.5861051E0,-1.5937077E-1,-7.709084E-2,9.2736915E-2,-2.1051393E0,5.098515E-2,-1.3597524E0,8.4828846E-2,8.527063E-1,1.0651301E0,-6.488059E-2,9.8898165E-2,-1.10762574E-1,5.219496E-2,-1.192946E0,-3.3551466E-2,-2.4042964E-1,-1.0173177E-1,3.976054E-2,1.3236573E0,-8.8653274E-2,8.819057E-2,3.2446507E-2,-1.1965513E-1,-1.0479354E-1,1.06441155E-2,-1.0062907E0,-8.328052E-2,-2.5878986E-2,1.16155244E-1,1.00649536E-1,-7.982222E-3,-1.2235295E-1,4.1782446E-2,-4.798535E-2,1.082983E-1],"split_indices":[103,319,82,302,384,152,129,0,0,289,266,16,277,373,114,325,65,193,35,0,0,192,167,168,0,261,231,0,0,0,0,114,0,239,0,0,148,0,0,0,0,0,0,304,0,0,0,0,0,0,0,0,0],"split_type":[0,0,0,0,0,0,0,0,0,0,0,0,0,0,0,0,0,0,0,0,0,0,0,0,0,0,0,0,0,0,0,0,0,0,0,0,0,0,0,0,0,0,0,0,0,0,0,0,0,0,0,0,0],"sum_hessian":[2.5044673E2,1.1062252E2,1.3982422E2,8.789858E0,1.01832664E2,8.570804E1,5.411618E1,7.729737E0,1.0601214E0,1.7094944E1,8.473772E1,6.537184E0,7.917085E1,1.4499966E1,3.961622E1,5.7411566E0,1.1353786E1,7.675341E1,7.9843063E0,2.4363754E0,4.100808E0,7.3942314E1,5.2285376E0,1.2525195E1,1.9747708E0,4.833837E0,3.478238E1,1.0821828E0,4.658974E0,1.0184139E1,1.1696476E0,7.478863E1,1.9647881E0,4.4261174E0,3.558189E0,1.4205593E0,7.252176E1,2.0696938E0,3.1588438E0,1.1015027E0,1.1423692E1,3.8245492E0,1.0092877E0,3.2688034E1,2.0943475E0,1.7083237E0,7.30803E1,3.3522027E0,1.0739146E0,7.147202E1,1.0497293E0,1.1387756E0,3.1549257E1],"tree_param":{"num_deleted":"0","num_feature":"388","num_nodes":"53","size_leaf_vector":"1"}},{"base_weights":[-9.287835E-3,-7.6639366E-1,3.488408E-1,-9.635836E-1,3.1485972E-1,-9.60499E-1,5.486819E-1,5.0631356E-1,-1.0483801E0,8.632863E-1,-8.116115E-1,-1.0893906E0,6.0740054E-2,-5.1197845E-1,8.4480804E-1,8.608325E-2,-2.7468521E-2,2.585985E-1,-1.1169633E0,1.0373379E-1,-2.4981657E-2,-9.173318E-2,-2.160619E-2,-1.1493333E-1,-1.4913522E-3,-8.2789516E-1,7.8282493E-1,-4.0298122E-1,9.629251E-1,8.17258E-2,-6.372114E-2,-1.1549133E0,-5.085675E-2,7.419576E-2,-1.0554118E0,-2.8768977E-2,1.05529025E-1,-1.1346572E-1,3.3796713E-1,1.004943E0,-9.1872014E-2,-5.5149756E-3,-1.1859765E-1,-4.1506585E-2,3.39044E-2,-1.1502787E-1,2.3637464E-2,8.636553E-2,-7.803374E-2,-8.857282E-2,1.0435462E-1],"categories":[],"categories_nodes":[],"categories_segments":[],"categories_sizes":[],"default_left":[0,0,0,0,0,0,0,0,0,0,0,0,0,0,0,0,0,0,0,0,0,0,0,0,0,0,0,0,0,0,0,0,0,0,0,0,0,0,0,0,0,0,0,0,0,0,0,0,0,0,0],"id":12,"left_children":[1,3,5,7,9,11,13,15,17,19,21,23,-1,25,27,-1,-1,29,31,-1,-1,-1,-1,-1,-1,33,35,37,39,-1,-1,41,43,-1,45,-1,-1,-1,47,49,-1,-1,-1,-1,-1,-1,-1,-1,-1,-1,-1],"loss_changes":[6.423341E1,1.652256E1,4.2613342E1,8.580643E0,8.414957E0,5.0393486E0,4.446207E1,1.3984803E0,5.7913284E0,1.9800816E0,9.168506E-2,1.2951183E0,0E0,1.341785E1,1.6595032E1,0E0,0E0,2.4588382E0,2.3086777E0,0E0,0E0,0E0,0E0,0E0,0E0,9.919834E0,2.239438E0,5.920884E0,8.888794E0,0E0,0E0,1.8632736E0,5.7489055E-1,0E0,3.0605698E0,0E0,0E0,0E0,4.1103263E0,8.15184E0,0E0,0E0,0E0,0E0,0E0,0E0,0E0,0E0,0E0,0E0,0E0],"parents":[2147483647,0,0,1,1,2,2,3,3,4,4,5,5,6,6,7,7,8,8,9,9,10,10,11,11,13,13,14,14,17,17,18,18,25,25,26,26,27,27,28,28,31,31,32,32,34,34,38,38,39,39],"right_children":[2,4,6,8,10,12,14,16,18,20,22,24,-1,26,28,-1,-1,30,32,-1,-1,-1,-1,-1,-1,34,36,38,40,-1,-1,42,44,-1,46,-1,-1,-1,48,50,-1,-1,-1,-1,-1,-1,-1,-1,-1,-1,-1],"split_conditions":[-4.299639E-1,9.0242356E-1,-6.184769E-1,-1.7622517E0,1.1738173E-1,2.2410705E0,-3.4548047E-1,-3.2291663E-1,-1.5014056E0,1.19056806E-1,3.1478414E-1,1.5056858E0,6.0740054E-2,5.336119E-1,-8.67164E-1,8.608325E-2,-2.7468521E-2,-6.7539525E-1,1.6112769E0,1.0373379E-1,-2.4981657E-2,-9.173318E-2,-2.160619E-2,-1.1493333E-1,-1.4913522E-3,-1.4155629E0,6.1219867E-4,1.6722964E-1,2.119483E0,8.17258E-2,-6.372114E-2,-1.4889704E0,-1.0385698E0,7.419576E-2,1.4523779E0,-2.8768977E-2,1.05529025E-1,-1.1346572E-1,5.7335906E-2,-1.7274418E0,-9.1872014E-2,-5.5149756E-3,-1.1859765E-1,-4.1506585E-2,3.39044E-2,-1.1502787E-1,2.3637464E-2,8.636553E-2,-7.803374E-2,-8.857282E-2,1.0435462E-1],"split_indices":[304,92,319,53,289,218,384,192,175,39,31,264,0,82,114,0,0,126,323,0,0,0,0,0,0,103,163,148,363,0,0,297,355,0,172,0,0,0,266,247,0,0,0,0,0,0,0,0,0,0,0],"split_type":[0,0,0,0,0,0,0,0,0,0,0,0,0,0,0,0,0,0,0,0,0,0,0,0,0,0,0,0,0,0,0,0,0,0,0,0,0,0,0,0,0,0,0,0,0,0,0,0,0,0,0],"sum_hessian":[2.3491414E2,7.50705E1,1.5984363E2,6.3583504E1,1.1487E1,2.0661985E1,1.3918164E2,3.196863E0,6.0386642E1,7.882845E0,3.6041553E0,1.9374468E1,1.2875173E0,3.0218071E1,1.0896357E2,2.1284676E0,1.0683954E0,2.8726375E0,5.7514004E1,6.8757734E0,1.0070714E0,2.6019526E0,1.002203E0,1.8284737E1,1.0897305E0,2.458116E1,5.6369114E0,9.214092E0,9.974948E1,1.8232691E0,1.0493684E0,5.545662E1,2.0573838E0,2.8253422E0,2.1755817E1,1.1322864E0,4.504625E0,4.368703E0,4.8453894E0,9.8026436E1,1.7230465E0,1.5996006E0,5.3857018E1,1.0303676E0,1.027016E0,2.0369461E1,1.386357E0,3.4509096E0,1.3944799E0,1.5223374E0,9.65041E1],"tree_param":{"num_deleted":"0","num_feature":"388","num_nodes":"51","size_leaf_vector":"1"}},{"base_weights":[-1.037886E-2,4.2957756E-1,-5.9510654E-1,-5.28277E-1,6.554153E-1,-9.322734E-1,4.5981216E-1,-8.453452E-1,6.6790485E-1,7.76586E-1,-9.515284E-1,-1.0250472E0,7.613616E-2,-5.394094E-1,9.509923E-1,-1.0381972E0,5.7698764E-2,-3.1693146E-2,9.559637E-2,8.9806706E-1,-4.1411972E-1,-1.3907951E-2,-1.0533661E-1,-1.1240714E0,1.846192E-1,-1.12553254E-1,7.170265E-2,-3.5324335E-2,1.0749782E0,-1.1430653E0,3.3281226E-2,-4.0088892E-1,9.669913E-1,6.989468E-1,-1.0192096E-1,-1.1518874E0,3.029411E-2,8.4639005E-2,-7.284632E-2,1.11625455E-1,2.814579E-2,-1.1836864E-1,-2.6490321E-2,6.14099E-2,-1.0062113E-1,-8.1919044E-2,1.0175254E-1,1.735223E-2,8.286024E-2,-6.8402323E-3,-1.1719724E-1],"categories":[],"categories_nodes":[],"categories_segments":[],"categories_sizes":[],"default_left":[0,0,0,0,0,0,0,0,0,0,0,0,0,0,0,0,0,0,0,0,0,0,0,0,0,0,0,0,0,0,0,0,0,0,0,0,0,0,0,0,0,0,0,0,0,0,0,0,0,0,0],"id":13,"left_children":[1,3,5,7,9,11,13,15,17,19,21,23,-1,25,27,29,-1,-1,-1,31,33,-1,-1,35,37,-1,-1,-1,39,41,-1,43,45,47,-1,49,-1,-1,-1,-1,-1,-1,-1,-1,-1,-1,-1,-1,-1,-1,-1],"loss_changes":[5.7286446E1,2.7837526E1,3.443332E1,9.970777E0,2.0850174E1,1.221574E1,1.22063055E1,6.0975237E0,1.9356313E0,1.4344097E1,4.8987675E-1,8.523697E0,0E0,7.0592575E0,3.021245E0,2.9697266E0,0E0,0E0,0E0,8.263329E0,7.1962204E0,0E0,0E0,2.9017792E0,4.309804E0,0E0,0E0,0E0,1.8251038E-1,2.9125977E-1,0E0,3.775527E0,8.400116E0,1.2759745E-1,0E0,1.2971725E0,0E0,0E0,0E0,0E0,0E0,0E0,0E0,0E0,0E0,0E0,0E0,0E0,0E0,0E0,0E0],"parents":[2147483647,0,0,1,1,2,2,3,3,4,4,5,5,6,6,7,7,8,8,9,9,10,10,11,11,13,13,14,14,15,15,19,19,20,20,23,23,24,24,28,28,29,29,31,31,32,32,33,33,35,35],"right_children":[2,4,6,8,10,12,14,16,18,20,22,24,-1,26,28,30,-1,-1,-1,32,34,-1,-1,36,38,-1,-1,-1,40,42,-1,44,46,48,-1,50,-1,-1,-1,-1,-1,-1,-1,-1,-1,-1,-1,-1,-1,-1,-1],"split_conditions":[1.5366302E-1,-6.7052436E-1,6.1242217E-1,8.781925E-1,1.2018795E0,1.6291896E0,2.1013607E-1,1.1315413E0,-1.0241765E-1,7.6897854E-1,-6.221256E-1,1.0668968E0,7.613616E-2,6.7489415E-1,-3.7503052E-1,1.2999828E0,5.7698764E-2,-3.1693146E-2,9.559637E-2,-1.2883627E0,-4.9362156E-1,-1.3907951E-2,-1.0533661E-1,1.6003277E0,-3.8363785E-1,-1.12553254E-1,7.170265E-2,-3.5324335E-2,4.4153893E-1,1.5991558E0,3.3281226E-2,-7.6041764E-1,-1.2464663E0,7.281605E-1,-1.0192096E-1,-1.824207E0,3.029411E-2,8.4639005E-2,-7.284632E-2,1.11625455E-1,2.814579E-2,-1.1836864E-1,-2.6490321E-2,6.14099E-2,-1.0062113E-1,-8.1919044E-2,1.0175254E-1,1.735223E-2,8.286024E-2,-6.8402323E-3,-1.1719724E-1],"split_indices":[289,156,156,148,242,117,88,208,380,266,55,282,0,349,304,291,0,0,0,173,350,0,0,349,55,0,0,0,185,265,0,35,353,40,0,125,0,0,0,0,0,0,0,0,0,0,0,0,0,0,0],"split_type":[0,0,0,0,0,0,0,0,0,0,0,0,0,0,0,0,0,0,0,0,0,0,0,0,0,0,0,0,0,0,0,0,0,0,0,0,0,0,0,0,0,0,0,0,0,0,0,0,0,0,0],"sum_hessian":[2.2069003E2,1.2608639E2,9.460364E1,2.380063E1,1.0228576E2,7.177849E1,2.2825151E1,1.9045576E1,4.7550545E0,9.559426E1,6.691501E0,6.842507E1,3.3534155E0,7.4899483E0,1.5335203E1,1.7009375E1,2.036202E0,1.0533962E0,3.7016582E0,8.696724E1,8.627016E0,1.0088348E0,5.6826663E0,6.3312977E1,5.1120915E0,5.1784196E0,2.311529E0,1.1707515E0,1.4164453E1,1.5955224E1,1.0541505E0,4.1393886E0,8.282785E1,2.9835837E0,5.6434326E0,6.229156E1,1.021417E0,3.0062823E0,2.1058092E0,1.3077492E1,1.08696E0,1.4917285E1,1.0379397E0,1.5409936E0,2.5983949E0,1.860374E0,8.0967476E1,1.0533311E0,1.9302527E0,1.2138939E0,6.1077667E1],"tree_param":{"num_deleted":"0","num_feature":"388","num_nodes":"51","size_leaf_vector":"1"}},{"base_weights":[-1.0635621E-2,5.47249E-1,-4.530969E-1,-5.9562546E-1,7.465751E-1,-9.049066E-1,2.476459E-1,-9.265692E-1,6.322852E-1,-6.7079234E-1,9.212186E-1,2.539477E-1,-1.0044132E0,-6.9445634E-1,6.026964E-1,-1.12470545E-1,1.8380512E-2,1.7288871E-2,7.426678E-2,7.352284E-2,-1.02894895E-1,1.000286E0,-2.352431E-1,-6.803253E-2,8.416318E-2,2.7945653E-1,-1.081761E0,-9.750726E-1,7.675639E-2,-9.2140116E-2,7.898652E-1,-3.7757367E-2,1.0411085E0,6.477498E-2,-8.659369E-2,8.513611E-2,-6.5450974E-2,4.1812938E-2,-1.1369824E0,2.1004265E-2,-1.1230581E-1,-5.56176E-1,9.343705E-1,-4.777522E-2,1.0752658E-1,1.0677722E-2,-1.17123365E-1,2.1755218E-3,-7.835762E-2,-4.8530903E-3,1.0693852E-1],"categories":[],"categories_nodes":[],"categories_segments":[],"categories_sizes":[],"default_left":[0,0,0,0,0,0,0,0,0,0,0,0,0,0,0,0,0,0,0,0,0,0,0,0,0,0,0,0,0,0,0,0,0,0,0,0,0,0,0,0,0,0,0,0,0,0,0,0,0,0,0],"id":14,"left_children":[1,3,5,7,9,11,13,15,17,19,21,23,25,27,29,-1,-1,-1,-1,-1,-1,31,33,-1,-1,35,37,39,-1,-1,41,-1,43,-1,-1,-1,-1,-1,45,-1,-1,47,49,-1,-1,-1,-1,-1,-1,-1,-1],"loss_changes":[5.1635136E1,2.1523865E1,3.7154587E1,6.3960657E0,2.0231049E1,8.457897E0,1.5976326E1,2.773757E0,5.5666804E-2,5.4249663E0,6.7240906E0,4.099335E0,6.827759E0,6.1621094E0,1.05168495E1,0E0,0E0,0E0,0E0,0E0,0E0,4.1399E0,3.5408106E0,0E0,0E0,2.9761262E0,5.625778E0,2.2547064E0,0E0,0E0,6.5691414E0,0E0,3.8839264E0,0E0,0E0,0E0,0E0,0E0,2.6914597E0,0E0,0E0,4.9569023E-1,3.828577E0,0E0,0E0,0E0,0E0,0E0,0E0,0E0,0E0],"parents":[2147483647,0,0,1,1,2,2,3,3,4,4,5,5,6,6,7,7,8,8,9,9,10,10,11,11,12,12,13,13,14,14,21,21,22,22,25,25,26,26,27,27,30,30,32,32,38,38,41,41,42,42],"right_children":[2,4,6,8,10,12,14,16,18,20,22,24,26,28,30,-1,-1,-1,-1,-1,-1,32,34,-1,-1,36,38,40,-1,-1,42,-1,44,-1,-1,-1,-1,-1,46,-1,-1,48,50,-1,-1,-1,-1,-1,-1,-1,-1],"split_conditions":[-1.8197885E-1,-2.624276E-1,2.1344393E-1,7.302168E-1,-4.8852786E-1,-1.2525208E0,-5.717037E-1,9.582224E-1,1.97514E-1,-1.3652718E0,7.6897854E-1,5.1549785E-2,-1.253649E0,1.3494986E0,-9.4383E-1,-1.12470545E-1,1.8380512E-2,1.7288871E-2,7.426678E-2,7.352284E-2,-1.02894895E-1,-1.4953316E0,-3.842308E-1,-6.803253E-2,8.416318E-2,-4.3562132E-1,-1.8806412E0,-1.3143936E0,7.675639E-2,-9.2140116E-2,-8.3490205E-1,-3.7757367E-2,-1.8000401E0,6.477498E-2,-8.659369E-2,8.513611E-2,-6.5450974E-2,4.1812938E-2,-1.4869963E0,2.1004265E-2,-1.1230581E-1,1.9618268E-1,-1.0136206E0,-4.777522E-2,1.0752658E-1,1.0677722E-2,-1.17123365E-1,2.1755218E-3,-7.835762E-2,-4.8530903E-3,1.0693852E-1],"split_indices":[103,319,82,1,384,152,129,355,12,289,266,16,190,373,298,0,0,0,0,0,0,113,188,0,0,102,327,168,0,0,114,0,374,0,0,0,0,0,239,0,0,326,261,0,0,0,0,0,0,0,0],"split_type":[0,0,0,0,0,0,0,0,0,0,0,0,0,0,0,0,0,0,0,0,0,0,0,0,0,0,0,0,0,0,0,0,0,0,0,0,0,0,0,0,0,0,0,0,0,0,0,0,0,0,0],"sum_hessian":[2.0717812E2,9.1531845E1,1.1564627E2,1.32978525E1,7.823399E1,7.013488E1,4.5511395E1,1.0668036E1,2.629816E0,8.270614E0,6.996338E1,5.4232855E0,6.471159E1,1.219551E1,3.3315884E1,9.041718E0,1.6263192E0,1.0066307E0,1.6231855E0,1.4653302E0,6.8052835E0,6.561249E1,4.3508887E0,2.0332618E0,3.3900237E0,3.5285964E0,6.1183E1,1.0511102E1,1.6844083E0,3.2148476E0,3.0101038E1,1.6506256E0,6.3961864E1,1.8015766E0,2.5493124E0,2.24335E0,1.2852464E0,1.9392211E0,5.924378E1,1.1202706E0,9.390831E0,2.642044E0,2.7458994E1,1.1211493E0,6.2840714E1,1.5310062E0,5.771277E1,1.0013843E0,1.6406598E0,3.3936806E0,2.4065313E1],"tree_param":{"num_deleted":"0","num_feature":"388","num_nodes":"51","size_leaf_vector":"1"}},{"base_weights":[-1.1122227E-2,-7.3008037E-1,3.175922E-1,-1.0468261E0,7.1630776E-2,6.336289E-1,-3.7750942E-1,-1.098122E0,3.459836E-2,6.0213584E-1,-8.6116636E-1,7.8705686E-1,-4.8519856E-1,3.074255E-1,-8.914402E-1,-1.134055E-1,-3.6528308E-4,9.843688E-2,-2.9423448E-1,-1.0083181E-1,3.813143E-4,8.6398935E-1,-8.063677E-1,-8.698246E-1,5.7021093E-1,7.8392994E-1,-6.300687E-1,-1.1031287E0,2.2144817E-1,4.6727046E-2,-7.938538E-2,-4.5159376E-1,9.308281E-1,-1.5007569E-2,-9.607213E-2,-1.0093907E-1,1.126038E-2,2.472973E-4,7.7666305E-2,9.680406E-1,-4.482042E-2,4.140221E-2,-9.182478E-2,-4.1554426E-3,-1.15522146E-1,-6.780876E-2,7.5974196E-2,6.455869E-2,-1.05933525E-1,-4.6263527E-2,9.725865E-2,1.07699476E-1,-7.1169585E-3],"categories":[],"categories_nodes":[],"categories_segments":[],"categories_sizes":[],"default_left":[0,0,0,0,0,0,0,0,0,0,0,0,0,0,0,0,0,0,0,0,0,0,0,0,0,0,0,0,0,0,0,0,0,0,0,0,0,0,0,0,0,0,0,0,0,0,0,0,0,0,0,0,0],"id":15,"left_children":[1,3,5,7,9,11,13,15,-1,17,19,21,23,25,27,-1,-1,-1,29,-1,-1,31,33,35,37,39,41,43,45,-1,-1,47,49,-1,-1,-1,-1,-1,-1,51,-1,-1,-1,-1,-1,-1,-1,-1,-1,-1,-1,-1,-1],"loss_changes":[4.630584E1,1.5684963E1,2.9782116E1,3.5325851E0,9.596432E0,1.6315819E1,1.5290777E1,1.679039E0,0E0,4.4978814E0,9.0273714E-1,1.07500305E1,5.2911835E0,8.995512E0,6.046507E0,0E0,0E0,0E0,2.0608327E0,0E0,0E0,7.3419952E0,2.9085064E-1,1.3550229E0,4.386891E-1,3.3972998E0,2.4766567E0,1.1055641E0,2.8243477E0,0E0,0E0,3.6706135E0,4.8278885E0,0E0,0E0,0E0,0E0,0E0,0E0,1.3993177E0,0E0,0E0,0E0,0E0,0E0,0E0,0E0,0E0,0E0,0E0,0E0,0E0,0E0],"parents":[2147483647,0,0,1,1,2,2,3,3,4,4,5,5,6,6,7,7,9,9,10,10,11,11,12,12,13,13,14,14,18,18,21,21,22,22,23,23,24,24,25,25,26,26,27,27,28,28,31,31,32,32,39,39],"right_children":[2,4,6,8,10,12,14,16,-1,18,20,22,24,26,28,-1,-1,-1,30,-1,-1,32,34,36,38,40,42,44,46,-1,-1,48,50,-1,-1,-1,-1,-1,-1,52,-1,-1,-1,-1,-1,-1,-1,-1,-1,-1,-1,-1,-1],"split_conditions":[-4.5088202E-1,3.1786373E-1,2.7084145E-1,1.5239749E0,1.714238E-1,7.5130546E-1,-1.5252765E-1,1.6227998E0,3.459836E-2,-9.344721E-2,8.0125886E-1,9.2935336E-1,4.7879684E-1,-1.4217001E-2,1.1007134E0,-1.134055E-1,-3.6528308E-4,9.843688E-2,-5.83098E-1,-1.0083181E-1,3.813143E-4,-9.4787323E-1,-6.833452E-1,9.015024E-1,8.662753E-2,3.1552687E-1,-1.0994707E0,-1.431905E0,-9.2426516E-2,4.6727046E-2,-7.938538E-2,-6.2717086E-1,-1.4614981E0,-1.5007569E-2,-9.607213E-2,-1.0093907E-1,1.126038E-2,2.472973E-4,7.7666305E-2,8.677026E-1,-4.482042E-2,4.140221E-2,-9.182478E-2,-4.1554426E-3,-1.15522146E-1,-6.780876E-2,7.5974196E-2,6.455869E-2,-1.05933525E-1,-4.6263527E-2,9.725865E-2,1.07699476E-1,-7.1169585E-3],"split_indices":[208,163,41,373,55,266,190,353,0,266,204,289,129,102,114,0,0,0,194,0,0,353,264,232,271,139,45,305,116,0,0,154,20,0,0,0,0,0,0,290,0,0,0,0,0,0,0,0,0,0,0,0,0],"split_type":[0,0,0,0,0,0,0,0,0,0,0,0,0,0,0,0,0,0,0,0,0,0,0,0,0,0,0,0,0,0,0,0,0,0,0,0,0,0,0,0,0,0,0,0,0,0,0,0,0,0,0,0,0],"sum_hessian":[1.939545E2,6.047145E1,1.3348305E2,4.3126846E1,1.7344603E1,9.1823006E1,4.1660046E1,4.1799007E1,1.327838E0,1.1282467E1,6.062137E0,8.101036E1,1.0812644E1,1.8031115E1,2.3628931E1,4.0435287E1,1.3637202E0,7.840798E0,3.4416683E0,5.0391545E0,1.0229824E0,7.771592E1,3.2944427E0,8.053518E0,2.759126E0,1.2063399E1,5.9677157E0,1.986002E1,3.7689116E0,1.3891356E0,2.0525327E0,3.47917E0,7.423675E1,1.0028282E0,2.2916143E0,7.0277014E0,1.0258169E0,1.0056349E0,1.7534912E0,1.0681642E1,1.3817579E0,1.1963999E0,4.771316E0,1.0130597E0,1.884696E1,1.3137774E0,2.4551342E0,1.2179974E0,2.2611728E0,1.8667015E0,7.237005E1,9.635107E0,1.0465347E0],"tree_param":{"num_deleted":"0","num_feature":"388","num_nodes":"53","size_leaf_vector":"1"}},{"base_weights":[-1.2763767E-2,-4.6476433E-1,4.88548E-1,-8.5176957E-1,2.1942057E-1,7.566247E-1,-3.042389E-1,4.3726137E-1,-9.9679756E-1,7.378036E-1,-6.7921233E-1,-7.61026E-1,8.7328565E-1,-8.315095E-1,3.8752437E-1,8.303557E-1,-6.829399E-2,-1.0842482E0,4.3834135E-1,9.642592E-1,-4.8853537E-1,-9.7319496E-1,6.064994E-2,1.2405039E-3,-9.504356E-2,-6.223039E-1,9.538109E-1,1.9945827E-1,-1.0768671E-1,-6.595024E-2,7.260874E-1,1.8402373E-2,9.308424E-2,-1.1102779E0,1.2709803E-2,-2.3595335E-2,7.6123066E-2,1.0394305E0,-1.9214101E-2,3.7813958E-2,-9.078631E-2,-1.1358269E-1,-2.768016E-3,-1.4982571E-2,-7.4208364E-2,-6.462542E-2,9.964848E-1,-4.1255604E-2,6.6128604E-2,-2.6990024E-2,9.576948E-2,-7.365537E-3,-1.13255195E-1,4.7161737E-3,1.0927039E-1,1.0319396E-1,-4.620666E-2],"categories":[],"categories_nodes":[],"categories_segments":[],"categories_sizes":[],"default_left":[0,0,0,0,0,0,0,0,0,0,0,0,0,0,0,0,0,0,0,0,0,0,0,0,0,0,0,0,0,0,0,0,0,0,0,0,0,0,0,0,0,0,0,0,0,0,0,0,0,0,0,0,0,0,0,0,0],"id":16,"left_children":[1,3,5,7,9,11,13,15,17,19,21,23,25,27,29,31,-1,33,35,37,39,41,-1,-1,-1,43,45,47,-1,-1,49,-1,-1,51,-1,-1,-1,53,-1,-1,-1,-1,-1,-1,-1,-1,55,-1,-1,-1,-1,-1,-1,-1,-1,-1,-1],"loss_changes":[4.169279E1,2.5802938E1,1.8773834E1,1.2025806E1,1.7153442E1,1.2259838E1,8.624484E0,3.6340175E0,7.507427E0,6.899868E0,5.7299576E0,7.749214E-1,7.9739075E0,3.56252E0,4.2106085E0,1.928618E-1,0E0,1.8154488E0,1.0353298E0,1.9275951E0,1.8958795E0,1.7294369E0,0E0,0E0,0E0,1.00256085E-1,4.6415443E0,1.2303863E0,0E0,0E0,2.2033172E0,0E0,0E0,1.1192551E0,0E0,0E0,0E0,9.433117E-1,0E0,0E0,0E0,0E0,0E0,0E0,0E0,0E0,3.446083E0,0E0,0E0,0E0,0E0,0E0,0E0,0E0,0E0,0E0,0E0],"parents":[2147483647,0,0,1,1,2,2,3,3,4,4,5,5,6,6,7,7,8,8,9,9,10,10,11,11,12,12,13,13,14,14,15,15,17,17,18,18,19,19,20,20,21,21,25,25,26,26,27,27,30,30,33,33,37,37,46,46],"right_children":[2,4,6,8,10,12,14,16,18,20,22,24,26,28,30,32,-1,34,36,38,40,42,-1,-1,-1,44,46,48,-1,-1,50,-1,-1,52,-1,-1,-1,54,-1,-1,-1,-1,-1,-1,-1,-1,56,-1,-1,-1,-1,-1,-1,-1,-1,-1,-1],"split_conditions":[1.1963919E-1,2.702555E-1,4.480736E-1,-1.4170127E0,1.5980169E-1,-1.1246567E0,2.2547558E-1,-2.4019955E-1,1.450096E0,6.9014215E-1,1.0994152E0,-6.3111573E-1,-5.390152E-1,-5.96499E-1,-2.9330042E-1,-2.4573506E-1,-6.829399E-2,1.6227798E0,-2.3604858E-1,3.1932414E-1,1.2252977E-1,6.654494E-1,6.064994E-2,1.2405039E-3,-9.504356E-2,-3.1770512E-1,-1.277916E0,3.3487013E-1,-1.0768671E-1,-6.595024E-2,-4.4645512E-1,1.8402373E-2,9.308424E-2,-1.7035929E0,1.2709803E-2,-2.3595335E-2,7.6123066E-2,-5.8304006E-1,-1.9214101E-2,3.7813958E-2,-9.078631E-2,-1.1358269E-1,-2.768016E-3,-1.4982571E-2,-7.4208364E-2,-6.462542E-2,1.7798065E0,-4.1255604E-2,6.6128604E-2,-2.6990024E-2,9.576948E-2,-7.365537E-3,-1.13255195E-1,4.7161737E-3,1.0927039E-1,1.0319396E-1,-4.620666E-2],"split_indices":[325,156,190,274,192,156,323,266,117,326,252,196,384,193,69,376,0,252,47,41,279,373,0,0,0,244,353,156,0,0,384,0,0,329,0,0,0,37,0,0,0,0,0,0,0,0,96,0,0,0,0,0,0,0,0,0,0],"split_type":[0,0,0,0,0,0,0,0,0,0,0,0,0,0,0,0,0,0,0,0,0,0,0,0,0,0,0,0,0,0,0,0,0,0,0,0,0,0,0,0,0,0,0,0,0,0,0,0,0,0,0,0,0,0,0,0,0],"sum_hessian":[1.8199634E2,9.574349E1,8.625284E1,6.099633E1,3.474716E1,6.449113E1,2.1761715E1,5.9648476E0,5.5031483E1,2.2149202E1,1.25979595E1,4.2092533E0,6.028187E1,1.223445E1,9.527265E0,4.606949E0,1.357899E0,5.2101185E1,2.9303E0,1.8877073E1,3.272129E0,1.0451301E1,2.1466591E0,1.0118783E0,3.1973748E0,2.7361171E0,5.7545753E1,2.3878825E0,9.846568E0,2.0963202E0,7.4309444E0,1.0008416E0,3.606107E0,5.108685E1,1.0143354E0,1.0360159E0,1.8942842E0,1.781985E1,1.0572213E0,1.0989733E0,2.1731558E0,8.745726E0,1.7055756E0,1.0085753E0,1.7275417E0,1.1274599E0,5.6418297E1,1.0728412E0,1.3150412E0,1.3707851E0,6.060159E0,1.1652099E0,4.992164E1,1.0040338E0,1.6815817E1,5.536496E1,1.0533353E0],"tree_param":{"num_deleted":"0","num_feature":"388","num_nodes":"57","size_leaf_vector":"1"}},{"base_weights":[-1.4097466E-2,-6.957924E-1,3.0365598E-1,-8.717657E-1,3.5561922E-1,-5.328658E-1,5.5407906E-1,2.9653376E-1,-9.7703606E-1,7.4561787E-1,-6.557923E-2,3.799993E-1,-8.402347E-1,-3.8682684E-1,8.279366E-1,-6.650743E-2,7.776032E-2,6.50917E-2,-1.0404595E0,-1.0562504E-2,9.494283E-2,-6.461185E-2,7.724482E-1,4.5199562E-2,-9.505791E-1,-6.9301987E-1,7.1271837E-1,-7.9596676E-2,8.80735E-1,-1.0758215E0,1.01040015E-2,-2.7235649E-3,9.3909755E-2,-1.0531107E0,3.9974164E-2,6.8719134E-2,-9.2156684E-1,2.2080066E-4,8.937039E-2,-7.7576846E-2,9.2160714E-1,-8.109494E-3,-1.1079689E-1,-1.0922744E-1,-1.8740231E-2,-1.030127E-1,2.1286601E-2,-3.9695606E-2,9.73589E-2],"categories":[],"categories_nodes":[],"categories_segments":[],"categories_sizes":[],"default_left":[0,0,0,0,0,0,0,0,0,0,0,0,0,0,0,0,0,0,0,0,0,0,0,0,0,0,0,0,0,0,0,0,0,0,0,0,0,0,0,0,0,0,0,0,0,0,0,0,0],"id":17,"left_children":[1,3,5,7,9,11,13,15,17,19,-1,21,23,25,27,-1,-1,-1,29,-1,-1,-1,31,-1,33,35,37,-1,39,41,-1,-1,-1,43,-1,-1,45,-1,-1,-1,47,-1,-1,-1,-1,-1,-1,-1,-1],"loss_changes":[3.7295612E1,1.0436932E1,2.4903057E1,6.0918274E0,3.8645165E0,8.056042E0,2.3741554E1,2.675961E0,5.169651E0,1.2529776E0,0E0,3.5733652E0,3.4154081E0,7.6223125E0,6.764702E0,0E0,0E0,0E0,1.814682E0,0E0,0E0,0E0,8.221972E-1,0E0,3.1365776E0,6.017336E0,6.5446734E-1,0E0,5.384529E0,1.2237663E0,0E0,0E0,0E0,4.2271233E-1,0E0,0E0,2.075283E0,0E0,0E0,0E0,5.031231E0,0E0,0E0,0E0,0E0,0E0,0E0,0E0,0E0],"parents":[2147483647,0,0,1,1,2,2,3,3,4,4,5,5,6,6,7,7,8,8,9,9,11,11,12,12,13,13,14,14,18,18,22,22,24,24,25,25,26,26,28,28,29,29,33,33,36,36,40,40],"right_children":[2,4,6,8,10,12,14,16,18,20,-1,22,24,26,28,-1,-1,-1,30,-1,-1,-1,32,-1,34,36,38,-1,40,42,-1,-1,-1,44,-1,-1,46,-1,-1,-1,48,-1,-1,-1,-1,-1,-1,-1,-1],"split_conditions":[-4.299639E-1,9.683083E-1,-1.5574533E-1,-1.1606228E0,-1.4950365E-2,-8.430086E-1,-3.4548047E-1,-1.24690145E-1,-1.618425E0,-9.7148955E-1,-6.557923E-2,-1.9950905E-1,-1.3431708E0,5.336119E-1,-1.3340262E0,-6.650743E-2,7.776032E-2,6.50917E-2,1.7441531E0,-1.0562504E-2,9.494283E-2,-6.461185E-2,-3.1703162E-1,4.5199562E-2,1.5735565E0,-1.4155629E0,2.0989253E-1,-7.9596676E-2,-1.2464663E0,-1.8316834E0,1.01040015E-2,-2.7235649E-3,9.3909755E-2,1.2834145E0,3.9974164E-2,6.8719134E-2,1.4523779E0,2.2080066E-4,8.937039E-2,-7.7576846E-2,-1.5722728E0,-8.109494E-3,-1.1079689E-1,-1.0922744E-1,-1.8740231E-2,-1.030127E-1,2.1286601E-2,-3.9695606E-2,9.73589E-2],"split_indices":[304,82,319,278,175,268,384,377,190,47,0,332,281,82,114,0,0,0,88,0,0,0,252,0,304,103,163,0,353,281,0,0,0,19,0,0,172,0,0,0,43,0,0,0,0,0,0,0,0],"split_type":[0,0,0,0,0,0,0,0,0,0,0,0,0,0,0,0,0,0,0,0,0,0,0,0,0,0,0,0,0,0,0,0,0,0,0,0,0,0,0,0,0,0,0,0,0,0,0,0,0],"sum_hessian":[1.7020251E2,5.373404E1,1.16468475E2,4.617642E1,7.5576215E0,2.657352E1,8.989496E1,3.666659E0,4.2509758E1,5.6440716E0,1.9135503E0,6.634173E0,1.9939348E1,2.0173016E1,6.972194E1,1.0951252E0,2.571534E0,1.2466899E0,4.126307E1,1.183358E0,4.4607134E0,1.6565341E0,4.9776387E0,1.3250942E0,1.8614254E1,1.606819E1,4.1048265E0,1.752273E0,6.7969666E1,4.0079014E1,1.1840539E0,1.0026913E0,3.9749477E0,1.7505165E1,1.1090876E0,1.9976227E0,1.4070567E1,1.0388244E0,3.0660021E0,1.203723E0,6.6765945E1,1.3649944E0,3.871402E1,1.649714E1,1.008024E0,1.29255905E1,1.1449767E0,2.28058E0,6.448537E1],"tree_param":{"num_deleted":"0","num_feature":"388","num_nodes":"49","size_leaf_vector":"1"}},{"base_weights":[-1.4156662E-2,3.7776655E-1,-5.466841E-1,-3.1749308E-1,6.380657E-1,-8.576514E-1,3.908899E-1,4.8559856E-1,-8.744191E-1,7.562177E-1,-7.102358E-1,-9.4607824E-1,6.1950732E-2,-5.230076E-1,8.5613424E-1,-4.9054304E-1,7.859204E-1,3.6021568E-2,-1.0325551E0,-8.183015E-2,8.3337784E-1,2.6032073E-2,-9.7460434E-2,-1.046505E0,1.2000891E-1,-1.0135465E-1,5.8612604E-2,9.862027E-1,-2.690289E-2,-6.9703795E-2,-1.1514155E-3,9.449372E-2,-1.222453E-2,-2.0022426E-2,-1.08275615E-1,8.9772564E-1,-6.986114E-2,-1.0715948E0,-1.3108769E-3,6.998463E-2,-6.390566E-2,2.995348E-2,1.0276663E-1,9.5169954E-2,-6.39724E-2,-7.152933E-3,-1.09395705E-1],"categories":[],"categories_nodes":[],"categories_segments":[],"categories_sizes":[],"default_left":[0,0,0,0,0,0,0,0,0,0,0,0,0,0,0,0,0,0,0,0,0,0,0,0,0,0,0,0,0,0,0,0,0,0,0,0,0,0,0,0,0,0,0,0,0,0,0],"id":18,"left_children":[1,3,5,7,9,11,13,15,17,19,21,23,-1,25,27,29,31,-1,33,-1,35,-1,-1,37,39,-1,-1,41,-1,-1,-1,-1,-1,-1,-1,43,-1,45,-1,-1,-1,-1,-1,-1,-1,-1,-1],"loss_changes":[3.3664024E1,1.7021608E1,2.026912E1,1.204621E1,1.1362085E1,7.333332E0,7.980221E0,3.6933017E0,3.437317E0,8.331104E0,1.7907865E0,5.3859825E0,0E0,4.18334E0,2.0388584E0,3.1547207E-1,1.4171E0,0E0,3.7555504E-1,0E0,6.5927544E0,0E0,0E0,1.1528664E0,2.7038438E0,0E0,0E0,7.5674057E-3,0E0,0E0,0E0,0E0,0E0,0E0,0E0,5.4643936E0,0E0,9.041252E-1,0E0,0E0,0E0,0E0,0E0,0E0,0E0,0E0,0E0],"parents":[2147483647,0,0,1,1,2,2,3,3,4,4,5,5,6,6,7,7,8,8,9,9,10,10,11,11,13,13,14,14,15,15,16,16,18,18,20,20,23,23,24,24,27,27,35,35,37,37],"right_children":[2,4,6,8,10,12,14,16,18,20,22,24,-1,26,28,30,32,-1,34,-1,36,-1,-1,38,40,-1,-1,42,-1,-1,-1,-1,-1,-1,-1,44,-1,46,-1,-1,-1,-1,-1,-1,-1,-1,-1],"split_conditions":[1.5366302E-1,-3.1458795E-1,6.1242217E-1,-2.6128653E-1,1.2266673E0,1.6291896E0,2.1013607E-1,-3.1875464E-1,-1.7168304E0,-8.229013E-1,-5.5727017E-1,1.0058229E0,6.1950732E-2,6.7489415E-1,5.184419E-1,-2.1151237E-1,3.5260132E-1,3.6021568E-2,-1.284677E0,-8.183015E-2,1.2018795E0,2.6032073E-2,-9.7460434E-2,1.3559271E0,-3.8363785E-1,-1.0135465E-1,5.8612604E-2,-1.4733149E0,-2.690289E-2,-6.9703795E-2,-1.1514155E-3,9.449372E-2,-1.222453E-2,-2.0022426E-2,-1.08275615E-1,1.5617485E0,-6.986114E-2,-1.8417399E0,-1.3108769E-3,6.998463E-2,-6.390566E-2,2.995348E-2,1.0276663E-1,9.5169954E-2,-6.39724E-2,-7.152933E-3,-1.09395705E-1],"split_indices":[289,148,156,268,126,117,88,270,226,319,207,282,0,349,185,358,314,0,102,0,242,0,0,114,55,0,0,246,0,0,0,0,0,0,0,28,0,329,0,0,0,0,0,0,0,0,0],"split_type":[0,0,0,0,0,0,0,0,0,0,0,0,0,0,0,0,0,0,0,0,0,0,0,0,0,0,0,0,0,0,0,0,0,0,0,0,0,0,0,0,0,0,0,0,0,0,0],"sum_hessian":[1.593063E2,9.19354E1,6.737091E1,2.4983826E1,6.695158E1,5.065522E1,1.6715689E1,1.02833E1,1.4700525E1,6.196105E1,4.9905286E0,4.813335E1,2.5218694E0,5.5970426E0,1.1118645E1,2.2703965E0,8.012903E0,1.5240148E0,1.3176511E1,2.4458625E0,5.9515182E1,1.0716331E0,3.9188957E0,4.4006275E1,4.1270742E0,3.940466E0,1.6565766E0,1.0077224E1,1.0414215E0,1.2684846E0,1.0019118E0,6.7844744E0,1.2284292E0,1.0332766E0,1.2143234E1,5.751347E1,2.0017123E0,4.2927082E1,1.0791947E0,2.383996E0,1.7430785E0,1.0421695E0,9.035054E0,5.5930943E1,1.5825297E0,1.0307183E0,4.1896362E1],"tree_param":{"num_deleted":"0","num_feature":"388","num_nodes":"47","size_leaf_vector":"1"}},{"base_weights":[-1.558054E-2,4.8777688E-1,-4.1753322E-1,7.9079825E-1,-1.5545438E-1,-8.3958566E-1,2.173891E-1,-7.775328E-2,8.916916E-1,3.1268036E-1,-9.158329E-1,-1.6903685E-1,-9.991428E-1,-6.2214464E-1,5.401548E-1,-3.2238004E-1,9.7233045E-1,5.896711E-1,-7.957644E-2,7.5425664E-3,-1.0612239E-1,-8.1564516E-1,5.276219E-1,3.2290325E-2,-1.0734136E0,-8.805005E-1,6.4737186E-2,-6.5545356E-1,7.319712E-1,-6.950411E-2,2.9493544E-2,-4.027595E-2,1.0246973E0,8.928405E-1,-2.2576702E-1,-8.876279E-2,-2.2615641E-2,-3.3318516E-2,7.7798165E-2,-1.1011982E0,-1.4536584E-3,1.1026412E-2,-1.023336E-1,-1.3179592E-2,-7.859668E-2,-6.3657105E-2,8.4504944E-1,-2.2542796E-3,1.0631464E-1,1.5663961E-2,9.895313E-2,-8.7005205E-2,5.908537E-2,-1.1195616E-1,-2.4554519E-2,-3.235787E-2,9.437954E-2],"categories":[],"categories_nodes":[],"categories_segments":[],"categories_sizes":[],"default_left":[0,0,0,0,0,0,0,0,0,0,0,0,0,0,0,0,0,0,0,0,0,0,0,0,0,0,0,0,0,0,0,0,0,0,0,0,0,0,0,0,0,0,0,0,0,0,0,0,0,0,0,0,0,0,0,0,0],"id":19,"left_children":[1,3,5,7,9,11,13,-1,15,17,19,21,23,25,27,29,31,33,-1,-1,-1,35,37,-1,39,41,-1,43,45,-1,-1,-1,47,49,51,-1,-1,-1,-1,53,-1,-1,-1,-1,-1,-1,55,-1,-1,-1,-1,-1,-1,-1,-1,-1,-1],"loss_changes":[3.0596899E1,1.321283E1,2.2708525E1,7.942959E0,8.239153E0,5.2556763E0,9.646754E0,0E0,4.5733833E0,4.9438114E0,1.3436961E0,5.3625283E0,4.3480377E0,3.8519926E0,6.294356E0,1.0012162E0,3.3687782E0,3.2261167E0,0E0,0E0,0E0,5.6880474E-2,1.5259366E0,0E0,1.1259689E0,1.349422E0,0E0,1.7203403E-1,3.9921618E0,0E0,0E0,0E0,1.6276321E0,4.942274E-1,2.6785948E0,0E0,0E0,0E0,0E0,3.1919098E-1,0E0,0E0,0E0,0E0,0E0,0E0,2.7341728E0,0E0,0E0,0E0,0E0,0E0,0E0,0E0,0E0,0E0,0E0],"parents":[2147483647,0,0,1,1,2,2,3,3,4,4,5,5,6,6,8,8,9,9,10,10,11,11,12,12,13,13,14,14,15,15,16,16,17,17,21,21,22,22,24,24,25,25,27,27,28,28,32,32,33,33,34,34,39,39,46,46],"right_children":[2,4,6,8,10,12,14,-1,16,18,20,22,24,26,28,30,32,34,-1,-1,-1,36,38,-1,40,42,-1,44,46,-1,-1,-1,48,50,52,-1,-1,-1,-1,54,-1,-1,-1,-1,-1,-1,56,-1,-1,-1,-1,-1,-1,-1,-1,-1,-1],"split_conditions":[-1.8197885E-1,3.4585568E-1,2.1344393E-1,-1.0114406E0,9.98021E-2,-6.622078E-1,-5.717037E-1,-7.775328E-2,-8.3490205E-1,7.1095943E-1,-1.424228E0,1.4599021E-1,-1.520521E0,1.3494986E0,-8.3490205E-1,-8.077039E-3,-1.694334E0,4.69913E-1,-7.957644E-2,7.5425664E-3,-1.0612239E-1,4.8169482E-1,1.3159555E-1,3.2290325E-2,1.2781945E0,-8.0821955E-1,6.4737186E-2,-4.8060292E-1,-9.4383E-1,-6.950411E-2,2.9493544E-2,-4.027595E-2,-5.390152E-1,-8.118279E-1,3.1009063E-1,-8.876279E-2,-2.2615641E-2,-3.3318516E-2,7.7798165E-2,1.4749519E0,-1.4536584E-3,1.1026412E-2,-1.023336E-1,-1.3179592E-2,-7.859668E-2,-6.3657105E-2,-8.491426E-1,-2.2542796E-3,1.0631464E-1,1.5663961E-2,9.895313E-2,-8.7005205E-2,5.908537E-2,-1.1195616E-1,-2.4554519E-2,-3.235787E-2,9.437954E-2],"split_indices":[103,193,82,319,366,350,129,0,114,59,10,92,209,373,114,240,363,300,0,0,0,341,232,0,111,41,0,325,298,0,0,0,384,251,52,0,0,0,0,349,0,0,0,0,0,0,304,0,0,0,0,0,0,0,0,0,0],"split_type":[0,0,0,0,0,0,0,0,0,0,0,0,0,0,0,0,0,0,0,0,0,0,0,0,0,0,0,0,0,0,0,0,0,0,0,0,0,0,0,0,0,0,0,0,0,0,0,0,0,0,0,0,0,0,0,0,0],"sum_hessian":[1.4921922E2,6.615771E1,8.3061516E1,4.4815876E1,2.1341835E1,4.970123E1,3.3360283E1,2.3034568E0,4.251242E1,1.3573781E1,7.768053E0,9.949068E0,3.9752163E1,9.006437E0,2.4353848E1,2.461099E0,4.005132E1,1.1234417E1,2.339364E0,1.0551803E0,6.7128725E0,5.071306E0,4.8777614E0,1.9363747E0,3.781579E1,7.738105E0,1.2683322E0,3.0328345E0,2.1321012E1,1.4561443E0,1.0049546E0,1.2238342E0,3.8827488E1,8.120426E0,3.1139913E0,4.068715E0,1.0025915E0,1.0244813E0,3.85328E0,3.680994E1,1.0058461E0,1.0037464E0,6.7343583E0,1.0060586E0,2.0267758E0,1.2739089E0,2.0047104E1,1.3897003E0,3.7437786E1,1.2468616E0,6.8735642E0,1.7040925E0,1.4098989E0,3.57346E1,1.0753403E0,1.3845457E0,1.8662558E1],"tree_param":{"num_deleted":"0","num_feature":"388","num_nodes":"57","size_leaf_vector":"1"}},{"base_weights":[-1.8094495E-2,3.7846318E-1,-5.0434154E-1,6.6515595E-1,-4.4253302E-1,-8.8949835E-1,1.5570799E-1,7.8859097E-1,-5.8827204E-1,-7.7262497E-1,5.453465E-1,-9.5934856E-1,4.1446753E-2,6.0304534E-1,-7.007405E-1,8.9157766E-1,-3.392449E-1,-9.156278E-2,4.718737E-2,-9.0936446E-1,3.3534966E-2,-4.2291403E-2,8.545075E-2,-1.6057809E-1,-1.034669E0,-4.6797368E-1,7.905354E-1,-9.3404204E-1,4.967649E-2,-1.2558328E-1,9.66092E-1,-8.2931465E-1,5.7956923E-2,-1.0229694E0,2.5031904E-2,-7.213392E-2,4.700054E-2,-2.0797422E-2,-1.06344305E-1,-6.3931175E-2,-6.005091E-3,-3.5669383E-2,9.067327E-1,-2.2454584E-2,-1.0081617E-1,-8.319711E-2,5.679437E-2,1.0055039E-1,-2.0443527E-2,-1.9939847E-2,-9.861527E-2,-1.7671218E-2,-1.0773561E-1,1.0263063E-1,1.7112158E-2],"categories":[],"categories_nodes":[],"categories_segments":[],"categories_sizes":[],"default_left":[0,0,0,0,0,0,0,0,0,0,0,0,0,0,0,0,0,0,0,0,0,0,0,0,0,0,0,0,0,0,0,0,0,0,0,0,0,0,0,0,0,0,0,0,0,0,0,0,0,0,0,0,0,0,0],"id":20,"left_children":[1,3,5,7,9,11,13,15,17,19,21,23,-1,25,27,29,31,-1,-1,33,-1,-1,-1,35,37,39,41,43,-1,45,47,49,-1,51,-1,-1,-1,-1,-1,-1,-1,-1,53,-1,-1,-1,-1,-1,-1,-1,-1,-1,-1,-1,-1],"loss_changes":[2.7263828E1,1.8630962E1,1.628098E1,9.45923E0,7.1922116E0,4.0634785E0,9.713165E0,6.4998207E0,2.4397192E0,2.7255516E0,2.0935895E0,2.150341E0,0E0,3.6766028E0,2.917728E0,3.8478165E0,2.8170707E0,0E0,0E0,2.1652431E0,0E0,0E0,0E0,1.9307991E0,6.114235E-1,1.7697358E-1,2.2410955E0,1.7843485E-1,0E0,2.5501397E0,2.3242493E0,1.783166E-1,0E0,4.2612648E-1,0E0,0E0,0E0,0E0,0E0,0E0,0E0,0E0,9.9818707E-1,0E0,0E0,0E0,0E0,0E0,0E0,0E0,0E0,0E0,0E0,0E0,0E0],"parents":[2147483647,0,0,1,1,2,2,3,3,4,4,5,5,6,6,7,7,8,8,9,9,10,10,11,11,13,13,14,14,15,15,16,16,19,19,23,23,24,24,25,25,26,26,27,27,29,29,30,30,31,31,33,33,42,42],"right_children":[2,4,6,8,10,12,14,16,18,20,22,24,-1,26,28,30,32,-1,-1,34,-1,-1,-1,36,38,40,42,44,-1,46,48,50,-1,52,-1,-1,-1,-1,-1,-1,-1,-1,54,-1,-1,-1,-1,-1,-1,-1,-1,-1,-1,-1,-1],"split_conditions":[-2.4728326E-2,3.941076E-1,2.6910388E-1,7.587507E-1,8.316263E-1,1.4145217E0,1.2596826E-1,9.397078E-1,8.044143E-1,8.52828E-1,-3.1091586E-1,-1.2617594E0,4.1446753E-2,-5.866342E-1,1.3636523E0,-9.4787323E-1,7.780342E-1,-9.156278E-2,4.718737E-2,1.3574089E0,3.3534966E-2,-4.2291403E-2,8.545075E-2,5.5465835E-1,-1.6419442E0,3.740985E-1,-1.4366795E0,-7.0006084E-1,4.967649E-2,7.337329E-3,1.1683341E0,2.4573562E-1,5.7956923E-2,-1.3822619E0,2.5031904E-2,-7.213392E-2,4.700054E-2,-2.0797422E-2,-1.06344305E-1,-6.3931175E-2,-6.005091E-3,-3.5669383E-2,-2.7447677E-1,-2.2454584E-2,-1.0081617E-1,-8.319711E-2,5.679437E-2,1.0055039E-1,-2.0443527E-2,-1.9939847E-2,-9.861527E-2,-1.7671218E-2,-1.0773561E-1,1.0263063E-1,1.7112158E-2],"split_indices":[266,55,208,165,255,325,267,193,111,129,121,102,0,145,73,353,82,0,0,40,0,0,0,272,70,266,274,41,0,304,39,290,0,379,0,0,0,0,0,0,0,0,53,0,0,0,0,0,0,0,0,0,0,0,0],"split_type":[0,0,0,0,0,0,0,0,0,0,0,0,0,0,0,0,0,0,0,0,0,0,0,0,0,0,0,0,0,0,0,0,0,0,0,0,0,0,0,0,0,0,0,0,0,0,0,0,0,0,0,0,0,0,0],"sum_hessian":[1.3940167E2,7.690425E1,6.2497425E1,5.7140537E1,1.9763718E1,3.9247704E1,2.3249722E1,5.2355522E1,4.785014E0,1.4977127E1,4.78659E0,3.750304E1,1.7446617E0,1.5466952E1,7.78277E0,4.816673E1,4.1887937E0,3.760234E0,1.0247802E0,1.3491361E1,1.4857666E0,1.0693995E0,3.7171907E0,3.5015152E0,3.4001526E1,2.0813649E0,1.3385588E1,6.69788E0,1.0848905E0,3.240929E0,4.49258E1,2.795278E0,1.3935155E0,1.239501E1,1.0963509E0,1.7771868E0,1.7243284E0,1.4204018E0,3.2581123E1,1.0662676E0,1.0150971E0,1.040719E0,1.2344868E1,1.0146681E0,5.683212E0,1.5066826E0,1.7342461E0,4.3598797E1,1.3270015E0,1.0100263E0,1.7852519E0,1.0050848E0,1.1389925E1,1.0278864E1,2.0660038E0],"tree_param":{"num_deleted":"0","num_feature":"388","num_nodes":"55","size_leaf_vector":"1"}},{"base_weights":[-1.9355608E-2,4.631785E-1,-4.0420863E-1,7.8921556E-1,-9.9389255E-2,-8.0935967E-1,1.9966698E-1,-6.982728E-2,8.799614E-1,-6.3836235E-1,4.8010904E-1,2.2497572E-1,-9.0447253E-1,-5.1167744E-1,5.542693E-1,-5.2836664E-2,9.473207E-1,1.7947307E-1,-9.8523974E-1,-6.1567705E-2,7.1988416E-1,-5.245326E-2,6.9983E-2,-1.0073928E0,3.5150815E-2,3.8162228E-1,-9.264931E-1,7.7485263E-1,-5.998444E-1,-5.7586294E-2,1.011764E0,6.806286E-2,-4.4616472E-2,-1.0913407E-1,-1.0760016E-2,-4.0992483E-2,8.9485234E-1,-1.0633073E0,-1.243962E-1,7.66966E-2,-6.79216E-2,-3.791954E-2,7.539942E-2,-9.893715E-2,-2.7631262E-2,8.86381E-1,-4.99723E-2,-9.85608E-3,-7.402276E-2,1.11013E-2,1.0424165E-1,1.66322E-2,9.679589E-2,-1.0903718E-1,-8.538921E-3,-6.3556544E-2,5.0555885E-2,9.5905505E-2,-8.957679E-3],"categories":[],"categories_nodes":[],"categories_segments":[],"categories_sizes":[],"default_left":[0,0,0,0,0,0,0,0,0,0,0,0,0,0,0,0,0,0,0,0,0,0,0,0,0,0,0,0,0,0,0,0,0,0,0,0,0,0,0,0,0,0,0,0,0,0,0,0,0,0,0,0,0,0,0,0,0,0,0],"id":21,"left_children":[1,3,5,7,9,11,13,-1,15,17,19,21,23,25,27,-1,29,31,33,-1,35,-1,-1,37,39,41,43,45,47,-1,49,-1,-1,-1,-1,-1,51,53,55,-1,-1,-1,-1,-1,-1,57,-1,-1,-1,-1,-1,-1,-1,-1,-1,-1,-1,-1,-1],"loss_changes":[2.4592987E1,1.085922E1,1.8179724E1,5.6524544E0,7.3196344E0,4.5589657E0,7.9449425E0,0E0,3.879549E0,3.5989723E0,3.436104E0,1.9790187E0,3.9755669E0,4.2902985E0,5.7469807E0,0E0,3.9545708E0,1.6953439E0,6.8567085E-1,0E0,2.30546E0,0E0,0E0,1.6824074E0,3.1288457E0,1.4410101E0,3.515005E-2,2.9811697E0,2.0099986E-1,0E0,8.04245E-1,0E0,0E0,0E0,0E0,0E0,3.0801725E-1,8.1824875E-1,1.3908347E0,0E0,0E0,0E0,0E0,0E0,0E0,1.2760324E0,0E0,0E0,0E0,0E0,0E0,0E0,0E0,0E0,0E0,0E0,0E0,0E0,0E0],"parents":[2147483647,0,0,1,1,2,2,3,3,4,4,5,5,6,6,8,8,9,9,10,10,11,11,12,12,13,13,14,14,16,16,17,17,18,18,20,20,23,23,24,24,25,25,26,26,27,27,28,28,30,30,36,36,37,37,38,38,45,45],"right_children":[2,4,6,8,10,12,14,-1,16,18,20,22,24,26,28,-1,30,32,34,-1,36,-1,-1,38,40,42,44,46,48,-1,50,-1,-1,-1,-1,-1,52,54,56,-1,-1,-1,-1,-1,-1,58,-1,-1,-1,-1,-1,-1,-1,-1,-1,-1,-1,-1,-1],"split_conditions":[-1.8197885E-1,2.1376374E-1,2.1344393E-1,-1.1311008E0,3.4815565E-1,-1.2525208E0,-3.716744E-1,-6.982728E-2,-1.192946E0,-5.8280605E-1,-5.8810276E-1,5.1549785E-2,1.3151271E0,-9.7221684E-1,6.1010325E-1,-5.2836664E-2,-1.751152E0,-4.2122304E-1,7.9500526E-1,-6.1567705E-2,-6.943724E-1,-5.245326E-2,6.9983E-2,1.1637417E0,-3.7808302E-1,-9.5582736E-1,8.0538267E-1,5.436295E-1,-1.7507587E-1,-5.7586294E-2,-1.1959279E0,6.806286E-2,-4.4616472E-2,-1.0913407E-1,-1.0760016E-2,-4.0992483E-2,-1.0023612E0,1.4749519E0,1.5067798E-1,7.66966E-2,-6.79216E-2,-3.791954E-2,7.539942E-2,-9.893715E-2,-2.7631262E-2,7.9046184E-1,-4.99723E-2,-9.85608E-3,-7.402276E-2,1.11013E-2,1.0424165E-1,1.66322E-2,9.679589E-2,-1.0903718E-1,-8.538921E-3,-6.3556544E-2,5.0555885E-2,9.5905505E-2,-8.957679E-3],"split_indices":[103,193,82,319,111,152,131,0,114,102,121,16,277,35,315,0,363,53,191,0,191,0,0,208,202,79,150,175,182,0,206,0,0,0,0,0,47,349,283,0,0,0,0,0,0,51,0,0,0,0,0,0,0,0,0,0,0,0,0],"split_type":[0,0,0,0,0,0,0,0,0,0,0,0,0,0,0,0,0,0,0,0,0,0,0,0,0,0,0,0,0,0,0,0,0,0,0,0,0,0,0,0,0,0,0,0,0,0,0,0,0,0,0,0,0,0,0,0,0,0,0],"sum_hessian":[1.3042244E2,5.777714E1,7.26453E1,3.632313E1,2.145401E1,4.3272636E1,2.9372667E1,1.7035779E0,3.4619553E1,1.1063045E1,1.0390966E1,3.5290885E0,3.974355E1,9.623878E0,1.9748789E1,1.267845E0,3.3351707E1,3.4385512E0,7.6244936E0,1.5840482E0,8.806918E0,1.3281394E0,2.2009492E0,3.575505E1,3.988499E0,3.077197E0,6.546681E0,1.6855793E1,2.8929958E0,1.0316511E0,3.2320057E1,1.8604093E0,1.5781418E0,6.5849233E0,1.03957E0,1.000917E0,7.8060007E0,3.3433704E1,2.3213475E0,1.9338175E0,2.0546813E0,1.0051612E0,2.0720358E0,5.4937024E0,1.0529782E0,1.5779609E1,1.0761847E0,1.005307E0,1.887689E0,1.2157468E0,3.110431E1,1.010555E0,6.795446E0,3.2421425E1,1.0122771E0,1.2765781E0,1.0447693E0,1.4702142E1,1.0774667E0],"tree_param":{"num_deleted":"0","num_feature":"388","num_nodes":"59","size_leaf_vector":"1"}},{"base_weights":[-2.1757893E-2,3.3958578E-1,-5.184564E-1,6.055808E-1,-2.9383007E-1,-8.067329E-1,3.328739E-1,-4.7777086E-1,7.5189275E-1,-7.88475E-1,2.8316182E-1,-8.968853E-1,5.478555E-2,-3.7784374E-1,8.751597E-1,4.4594288E-2,-8.847412E-2,-6.519661E-2,8.4045637E-1,2.3463136E-2,-9.697276E-1,5.8783376E-1,-5.7557815E-1,-9.947077E-1,1.00378454E-1,-8.189362E-1,5.690682E-2,1.7710313E-2,9.485759E-2,-4.4370994E-2,8.999675E-1,-2.181244E-2,-1.0277454E-1,8.0656844E-1,-3.883566E-2,-6.782573E-2,-1.7031893E-2,-1.0205244E0,-8.250944E-3,6.170655E-2,-5.6026716E-2,-2.2050465E-2,-9.1746286E-2,-2.477438E-2,9.760501E-2,9.303419E-2,2.6873427E-3,-1.0471262E-1,-1.1091928E-2],"categories":[],"categories_nodes":[],"categories_segments":[],"categories_sizes":[],"default_left":[0,0,0,0,0,0,0,0,0,0,0,0,0,0,0,0,0,0,0,0,0,0,0,0,0,0,0,0,0,0,0,0,0,0,0,0,0,0,0,0,0,0,0,0,0,0,0,0,0],"id":22,"left_children":[1,3,5,7,9,11,13,15,17,19,21,23,-1,25,27,-1,-1,-1,29,-1,31,33,35,37,39,41,-1,-1,-1,-1,43,-1,-1,45,-1,-1,-1,47,-1,-1,-1,-1,-1,-1,-1,-1,-1,-1,-1],"loss_changes":[2.2198177E1,1.2246939E1,1.3047E1,8.4073105E0,6.461702E0,5.277088E0,5.6798487E0,2.8955083E0,6.157921E0,2.4589543E0,3.1705337E0,3.721344E0,0E0,3.2666178E0,2.5090647E-1,0E0,0E0,0E0,3.6763592E0,0E0,2.3007011E-1,2.1249895E0,2.3466825E-2,7.141037E-1,1.7877271E0,9.1578245E-2,0E0,0E0,0E0,0E0,3.8491745E0,0E0,0E0,6.75313E-1,0E0,0E0,0E0,6.7938995E-1,0E0,0E0,0E0,0E0,0E0,0E0,0E0,0E0,0E0,0E0,0E0],"parents":[2147483647,0,0,1,1,2,2,3,3,4,4,5,5,6,6,7,7,8,8,9,9,10,10,11,11,13,13,14,14,18,18,20,20,21,21,22,22,23,23,24,24,25,25,30,30,33,33,37,37],"right_children":[2,4,6,8,10,12,14,16,18,20,22,24,-1,26,28,-1,-1,-1,30,-1,32,34,36,38,40,42,-1,-1,-1,-1,44,-1,-1,46,-1,-1,-1,48,-1,-1,-1,-1,-1,-1,-1,-1,-1,-1,-1],"split_conditions":[1.5366302E-1,2.7084145E-1,6.1242217E-1,-6.2650186E-1,2.8270206E-1,1.6291896E0,5.185973E-1,-8.430086E-1,-1.0532148E0,-1.2030817E0,5.201545E-1,1.0058229E0,5.478555E-2,3.5866866E-1,-1.8820082E-1,4.4594288E-2,-8.847412E-2,-6.519661E-2,-5.8108795E-1,2.3463136E-2,-1.3994113E0,5.2342576E-1,1.24749385E-1,1.2680504E0,-3.8363785E-1,-4.8021817E-1,5.690682E-2,1.7710313E-2,9.485759E-2,-4.4370994E-2,-6.92116E-1,-2.181244E-2,-1.0277454E-1,4.217644E-1,-3.883566E-2,-6.782573E-2,-1.7031893E-2,1.412332E0,-8.250944E-3,6.170655E-2,-5.6026716E-2,-2.2050465E-2,-9.1746286E-2,-2.477438E-2,9.760501E-2,9.303419E-2,2.6873427E-3,-1.0471262E-1,-1.1091928E-2],"split_indices":[289,41,156,208,92,117,88,268,353,185,354,282,0,1,150,0,0,0,384,0,330,46,84,114,55,364,0,0,0,0,319,0,0,154,0,0,0,88,0,0,0,0,0,0,0,0,0,0,0],"split_type":[0,0,0,0,0,0,0,0,0,0,0,0,0,0,0,0,0,0,0,0,0,0,0,0,0,0,0,0,0,0,0,0,0,0,0,0,0,0,0,0,0,0,0,0,0,0,0,0,0],"sum_hessian":[1.21700325E2,7.063229E1,5.1068035E1,4.977419E1,2.0858103E1,3.818893E1,1.2879106E1,5.6528444E0,4.4121346E1,1.1033097E1,9.825005E0,3.6122734E1,2.0661964E0,5.7051706E0,7.1739354E0,1.6995523E0,3.9532921E0,2.2407484E0,4.1880596E1,1.6161287E0,9.416968E0,7.4849076E0,2.3400974E0,3.2898277E1,3.2244563E0,3.9843314E0,1.720839E0,1.0074264E0,6.166509E0,1.5689504E0,4.0311646E1,1.0159005E0,8.401069E0,6.2567244E0,1.228183E0,1.3295866E0,1.0105108E0,3.1877344E1,1.0209336E0,1.8463796E0,1.3780768E0,1.0209993E0,2.9633322E0,2.3658826E0,3.7945763E1,5.2328224E0,1.0239022E0,3.0824677E1,1.0526668E0],"tree_param":{"num_deleted":"0","num_feature":"388","num_nodes":"49","size_leaf_vector":"1"}},{"base_weights":[-2.2853436E-2,4.696051E-1,-3.8194406E-1,-8.882882E-2,6.8557197E-1,1.1947471E-1,-7.557816E-1,-2.609289E-1,8.364675E-1,-7.812102E-1,4.2120397E-1,-9.6566963E-1,-1.5376994E-1,4.6344763E-1,-8.254267E-2,9.177935E-1,-6.547386E-2,-9.470187E-2,1.6402608E-2,-5.6751925E-1,6.1235756E-1,-1.0452617E0,8.160024E-3,-7.509799E-1,3.6354807E-1,6.705327E-2,-2.7443888E-3,-2.27585E-2,9.6833646E-1,-8.018725E-2,6.904711E-3,7.3736215E-1,-4.1061647E-2,-3.1140937E-2,-1.0793196E0,-8.888589E-2,-7.5111366E-3,7.0072323E-1,-4.6539407E-2,-5.260186E-3,1.00098744E-1,8.416996E-2,-3.9908756E-2,-1.1000856E-1,-3.0404583E-2,8.272201E-2,1.0083515E-2],"categories":[],"categories_nodes":[],"categories_segments":[],"categories_sizes":[],"default_left":[0,0,0,0,0,0,0,0,0,0,0,0,0,0,0,0,0,0,0,0,0,0,0,0,0,0,0,0,0,0,0,0,0,0,0,0,0,0,0,0,0,0,0,0,0,0,0],"id":23,"left_children":[1,3,5,-1,7,9,11,13,15,17,19,21,23,25,-1,27,-1,-1,-1,29,31,33,-1,35,37,-1,-1,-1,39,-1,-1,41,-1,-1,43,-1,-1,45,-1,-1,-1,-1,-1,-1,-1,-1,-1],"loss_changes":[2.0498434E1,1.4949968E1,1.2649528E1,0E0,6.324787E0,8.340812E0,4.718708E0,3.0982351E0,5.101948E0,1.369678E0,4.6439447E0,2.4502773E0,3.7169747E0,3.7919754E-1,0E0,2.2819633E0,0E0,0E0,0E0,6.822194E-1,2.8002872E0,3.2474136E-1,0E0,4.458034E-1,2.1839514E0,0E0,0E0,0E0,1.1959267E0,0E0,0E0,2.441987E0,0E0,0E0,6.579971E-2,0E0,0E0,3.0543113E-1,0E0,0E0,0E0,0E0,0E0,0E0,0E0,0E0,0E0],"parents":[2147483647,0,0,1,1,2,2,4,4,5,5,6,6,7,7,8,8,9,9,10,10,11,11,12,12,13,13,15,15,19,19,20,20,21,21,23,23,24,24,28,28,31,31,34,34,37,37],"right_children":[2,4,6,-1,8,10,12,14,16,18,20,22,24,26,-1,28,-1,-1,-1,30,32,34,-1,36,38,-1,-1,-1,40,-1,-1,42,-1,-1,44,-1,-1,46,-1,-1,-1,-1,-1,-1,-1,-1,-1],"split_conditions":[-1.6510797E-1,-5.4543287E-1,-1.2741002E-1,-8.882882E-2,-6.0015893E-1,-5.628284E-1,5.005614E-1,-1.8426307E-1,1.2205617E0,8.2626474E-1,-6.5447915E-1,1.5036675E0,7.255405E-2,-1.4685924E-1,-8.254267E-2,-1.1070223E0,-6.547386E-2,-9.470187E-2,1.6402608E-2,7.9173714E-1,9.647872E-1,-1.4673047E0,8.160024E-3,1.0901495E0,-9.800863E-2,6.705327E-2,-2.7443888E-3,-2.27585E-2,-9.264384E-1,-8.018725E-2,6.904711E-3,8.6319155E-1,-4.1061647E-2,-3.1140937E-2,1.4035842E0,-8.888589E-2,-7.5111366E-3,4.9533418E-1,-4.6539407E-2,-5.260186E-3,1.00098744E-1,8.416996E-2,-3.9908756E-2,-1.1000856E-1,-3.0404583E-2,8.272201E-2,1.0083515E-2],"split_indices":[193,223,190,0,145,298,282,190,231,252,339,199,82,268,0,148,0,0,0,356,174,314,0,331,315,0,0,0,304,0,0,289,0,0,67,0,0,242,0,0,0,0,0,0,0,0,0],"split_type":[0,0,0,0,0,0,0,0,0,0,0,0,0,0,0,0,0,0,0,0,0,0,0,0,0,0,0,0,0,0,0,0,0,0,0,0,0,0,0,0,0,0,0,0,0,0,0],"sum_hessian":[1.1390268E2,4.7901955E1,6.6000725E1,6.1459804E0,4.1755974E1,2.8480698E1,3.7520023E1,5.6413145E0,3.611466E1,6.7480736E0,2.1732624E1,2.7372635E1,1.0147388E1,2.54917E0,3.0921445E0,3.4611576E1,1.5030833E0,5.73941E0,1.0086638E0,3.201947E0,1.8530678E1,2.5441042E1,1.9315934E0,4.500349E0,5.6470394E0,1.535474E0,1.0136961E0,1.3147424E0,3.3296833E1,2.1505377E0,1.0514091E0,1.6761648E1,1.7690302E0,1.5782212E0,2.3862822E1,3.4760833E0,1.024266E0,4.124189E0,1.5228508E0,1.0129408E0,3.2283894E1,1.5589716E1,1.1719311E0,2.2832283E1,1.0305377E0,3.0930154E0,1.0311735E0],"tree_param":{"num_deleted":"0","num_feature":"388","num_nodes":"47","size_leaf_vector":"1"}},{"base_weights":[-2.6185812E-2,-6.366234E-1,2.5510424E-1,-7.990862E-1,3.011632E-1,-4.8578984E-1,4.8093876E-1,-9.042487E-1,2.4938902E-1,-4.1275475E-2,6.914406E-2,3.3157074E-1,-7.6977736E-1,-3.4766093E-1,7.2724074E-1,-9.9357474E-1,-3.060559E-1,6.460591E-2,-3.3325236E-2,-5.1166248E-2,6.698716E-1,2.4885027E-2,-8.7635887E-1,-7.075706E-1,3.6433485E-1,-3.36413E-1,8.053855E-1,-1.0377908E-1,-1.1734603E-2,-6.545838E-2,4.699122E-2,1.8753653E-2,7.6462574E-2,-1.1091152E-2,-9.571719E-1,4.6998292E-2,-9.030915E-2,-2.8599337E-2,6.936495E-2,-8.16685E-2,3.643717E-2,8.6212635E-1,-4.4832427E-2,-1.0018905E-1,-2.6325548E-2,-2.8543567E-2,9.310118E-2],"categories":[],"categories_nodes":[],"categories_segments":[],"categories_sizes":[],"default_left":[0,0,0,0,0,0,0,0,0,0,0,0,0,0,0,0,0,0,0,0,0,0,0,0,0,0,0,0,0,0,0,0,0,0,0,0,0,0,0,0,0,0,0,0,0,0,0],"id":24,"left_children":[1,3,5,7,9,11,13,15,17,-1,-1,19,21,23,25,27,29,-1,-1,-1,31,-1,33,35,37,39,41,-1,-1,-1,-1,-1,-1,-1,43,-1,-1,-1,-1,-1,-1,45,-1,-1,-1,-1,-1],"loss_changes":[1.8668007E1,5.4637375E0,1.26972885E1,3.4775085E0,1.8981917E0,4.4099345E0,1.2006386E1,1.13978E0,1.0178297E0,0E0,0E0,1.8587277E0,1.6929255E0,3.812799E0,3.9878807E0,7.718544E-1,1.6479099E0,0E0,0E0,0E0,4.97334E-2,0E0,6.6824436E-1,2.624298E0,1.3373346E0,1.5650507E0,3.370863E0,0E0,0E0,0E0,0E0,0E0,0E0,0E0,8.356094E-2,0E0,0E0,0E0,0E0,0E0,0E0,3.4655457E0,0E0,0E0,0E0,0E0,0E0],"parents":[2147483647,0,0,1,1,2,2,3,3,4,4,5,5,6,6,7,7,8,8,11,11,12,12,13,13,14,14,15,15,16,16,20,20,22,22,23,23,24,24,25,25,26,26,34,34,41,41],"right_children":[2,4,6,8,10,12,14,16,18,-1,-1,20,22,24,26,28,30,-1,-1,-1,32,-1,34,36,38,40,42,-1,-1,-1,-1,-1,-1,-1,44,-1,-1,-1,-1,-1,-1,46,-1,-1,-1,-1,-1],"split_conditions":[-4.299639E-1,9.683083E-1,-1.5574533E-1,1.7326947E0,2.3090588E-1,-8.430086E-1,-3.4548047E-1,7.8602254E-1,-6.669855E-1,-4.1275475E-2,6.914406E-2,-1.9950905E-1,-1.241216E0,9.495201E-2,-1.3003747E0,1.2487478E0,5.572184E-1,6.460591E-2,-3.3325236E-2,-5.1166248E-2,5.3095337E-2,2.4885027E-2,-1.0905187E0,-1.4155629E0,-4.747294E-1,-8.10184E-2,1.3289174E0,-1.0377908E-1,-1.1734603E-2,-6.545838E-2,4.699122E-2,1.8753653E-2,7.6462574E-2,-1.1091152E-2,8.247728E-1,4.6998292E-2,-9.030915E-2,-2.8599337E-2,6.936495E-2,-8.16685E-2,3.643717E-2,-1.5517726E0,-4.4832427E-2,-1.0018905E-1,-2.6325548E-2,-2.8543567E-2,9.310118E-2],"split_indices":[304,82,319,383,377,268,384,282,41,0,0,332,175,82,247,37,208,0,0,0,310,0,327,103,136,377,41,0,0,0,0,0,0,0,30,0,0,0,0,0,0,332,0,0,0,0,0],"split_type":[0,0,0,0,0,0,0,0,0,0,0,0,0,0,0,0,0,0,0,0,0,0,0,0,0,0,0,0,0,0,0,0,0,0,0,0,0,0,0,0,0,0,0,0,0,0,0],"sum_hessian":[1.0677239E2,3.3282223E1,7.3490166E1,2.8493835E1,4.7883897E0,1.689891E1,5.6591255E1,2.6021433E1,2.4724023E0,1.6720983E0,3.1162915E0,4.3142557E0,1.2584656E1,1.28729725E1,4.3718285E1,2.2065508E1,3.9559247E0,1.4061986E0,1.0662038E0,1.0885465E0,3.225709E0,1.0655998E0,1.1519056E1,8.554791E0,4.318181E0,2.765886E0,4.0952396E1,2.0830004E1,1.2355034E0,2.8377652E0,1.1181595E0,1.0188023E0,2.2069068E0,1.3265591E0,1.0192497E1,1.018283E0,7.536508E0,1.495812E0,2.822369E0,1.5430168E0,1.2228693E0,3.9478024E1,1.4743735E0,9.15847E0,1.0340272E0,2.0575578E0,3.7420467E1],"tree_param":{"num_deleted":"0","num_feature":"388","num_nodes":"47","size_leaf_vector":"1"}},{"base_weights":[-2.6950201E-2,4.303146E-1,-3.9032987E-1,7.176953E-1,-1.4021702E-1,-7.078822E-1,2.8275263E-1,-6.60203E-2,8.163627E-1,2.82853E-1,-8.0603E-1,-8.268025E-1,2.1918789E-1,-4.2049155E-1,6.082424E-1,8.848781E-1,-5.2659996E-2,5.2825755E-1,-6.520238E-2,-7.5380104E-3,-9.366291E-2,-9.1510135E-1,1.700771E-1,6.339132E-2,-5.208223E-2,-7.8644745E-2,4.1520316E-2,-4.660188E-1,8.422515E-1,-1.2975491E-2,9.5528215E-1,8.1139934E-1,-1.9799514E-1,-3.8950154E-1,-1.0618389E-1,6.289558E-2,-4.9767967E-2,-1.2429277E-2,-5.737692E-2,-1.0314516E-2,9.6156575E-2,-8.493033E-3,1.0083314E-1,1.896954E-2,8.924732E-2,-6.751582E-2,3.7498243E-2,-7.7150166E-2,3.313465E-2],"categories":[],"categories_nodes":[],"categories_segments":[],"categories_sizes":[],"default_left":[0,0,0,0,0,0,0,0,0,0,0,0,0,0,0,0,0,0,0,0,0,0,0,0,0,0,0,0,0,0,0,0,0,0,0,0,0,0,0,0,0,0,0,0,0,0,0,0,0],"id":25,"left_children":[1,3,5,7,9,11,13,-1,15,17,19,21,23,25,27,29,-1,31,-1,-1,-1,33,35,-1,-1,-1,-1,37,39,-1,41,43,45,47,-1,-1,-1,-1,-1,-1,-1,-1,-1,-1,-1,-1,-1,-1,-1],"loss_changes":[1.7001118E1,7.5335712E0,1.2377401E1,4.659932E0,4.741257E0,4.480341E0,4.5996575E0,0E0,3.1098213E0,2.7619455E0,5.48213E-1,3.21632E0,1.9333665E0,2.3436694E0,3.7564902E0,2.103506E0,0E0,1.9905448E0,0E0,0E0,0E0,2.0620384E0,1.4383565E0,0E0,0E0,0E0,0E0,4.0523767E-2,1.3788147E0,0E0,1.5221996E0,1.6330814E-1,1.1554135E0,2.6195989E0,0E0,0E0,0E0,0E0,0E0,0E0,0E0,0E0,0E0,0E0,0E0,0E0,0E0,0E0,0E0],"parents":[2147483647,0,0,1,1,2,2,3,3,4,4,5,5,6,6,8,8,9,9,10,10,11,11,12,12,13,13,14,14,15,15,17,17,21,21,22,22,27,27,28,28,30,30,31,31,32,32,33,33],"right_children":[2,4,6,8,10,12,14,-1,16,18,20,22,24,26,28,30,-1,32,-1,-1,-1,34,36,-1,-1,-1,-1,38,40,-1,42,44,46,48,-1,-1,-1,-1,-1,-1,-1,-1,-1,-1,-1,-1,-1,-1,-1],"split_conditions":[-1.8197885E-1,3.4585568E-1,4.8509425E-1,-1.0114406E0,9.98021E-2,9.863593E-1,-5.428946E-1,-6.60203E-2,1.3454567E0,7.1095943E-1,-1.2962916E0,1.5110375E0,-9.865937E-3,1.0511321E0,-3.7019053E-1,-4.8852786E-1,-5.2659996E-2,4.69913E-1,-6.520238E-2,-7.5380104E-3,-9.366291E-2,-4.183281E-1,-6.622078E-1,6.339132E-2,-5.208223E-2,-7.8644745E-2,4.1520316E-2,-4.8329553E-1,-7.9199684E-1,-1.2975491E-2,-8.3490205E-1,-7.310552E-1,3.0449456E-1,4.0431732E-1,-1.0618389E-1,6.289558E-2,-4.9767967E-2,-1.2429277E-2,-5.737692E-2,-1.0314516E-2,9.6156575E-2,-8.493033E-3,1.0083314E-1,1.896954E-2,8.924732E-2,-6.751582E-2,3.7498243E-2,-7.7150166E-2,3.313465E-2],"split_indices":[103,193,82,319,366,111,129,0,305,59,10,277,41,94,306,384,0,300,0,0,0,305,350,0,0,0,0,124,323,0,114,251,52,65,0,0,0,0,0,0,0,0,0,0,0,0,0,0,0],"split_type":[0,0,0,0,0,0,0,0,0,0,0,0,0,0,0,0,0,0,0,0,0,0,0,0,0,0,0,0,0,0,0,0,0,0,0,0,0,0,0,0,0,0,0,0,0,0,0,0,0],"sum_hessian":[1.0030644E2,4.433392E1,5.5972523E1,2.931155E1,1.5022371E1,3.7995155E1,1.797737E1,1.5783643E0,2.7733185E1,9.537342E0,5.485029E0,3.3771286E1,4.223869E0,5.5956626E0,1.2381706E1,2.6711514E1,1.021671E0,7.8988442E0,1.6384976E0,1.0709093E0,4.41412E0,3.1098742E1,2.6725428E0,2.798739E0,1.42513E0,3.9325185E0,1.6631441E0,2.0373633E0,1.0344342E1,1.6785125E0,2.5033E1,5.5988126E0,2.300032E0,7.5848694E0,2.3513872E1,1.6184556E0,1.0540872E0,1.0046575E0,1.0327058E0,1.1744002E0,9.169943E0,1.1855347E0,2.3847467E1,1.0311745E0,4.567638E0,1.1576413E0,1.1423906E0,4.9117227E0,2.6731467E0],"tree_param":{"num_deleted":"0","num_feature":"388","num_nodes":"49","size_leaf_vector":"1"}},{"base_weights":[-2.8713293E-2,-4.1385406E-1,3.897353E-1,-7.357624E-1,2.573428E-1,6.3209647E-1,-2.8980696E-1,-1.6697188E-1,-9.6324277E-1,-4.812177E-1,5.7749915E-1,-5.9744384E-2,7.375356E-1,-7.103803E-1,2.980229E-1,-7.045274E-1,4.3426254E-1,-1.0073789E0,-3.1406977E-3,2.1587284E-2,-8.0559835E-2,7.893432E-1,-3.080175E-1,-4.4990778E-2,8.127417E-1,1.5099955E-2,-9.241492E-2,5.95532E-1,-4.9806163E-2,-8.9519E-2,5.878309E-3,7.1349785E-2,-3.947793E-2,-1.0327333E-1,-2.4794128E-2,9.246125E-2,1.1050357E-3,1.398526E-2,-5.9200533E-2,8.718955E-1,-3.8953986E-2,-3.0771748E-3,7.880144E-2,-2.0738706E-2,9.212813E-2],"categories":[],"categories_nodes":[],"categories_segments":[],"categories_sizes":[],"default_left":[0,0,0,0,0,0,0,0,0,0,0,0,0,0,0,0,0,0,0,0,0,0,0,0,0,0,0,0,0,0,0,0,0,0,0,0,0,0,0,0,0,0,0,0,0],"id":26,"left_children":[1,3,5,7,9,11,13,15,17,19,21,-1,23,25,27,29,31,33,-1,-1,-1,35,37,-1,39,-1,-1,41,-1,-1,-1,-1,-1,-1,-1,-1,-1,-1,-1,43,-1,-1,-1,-1,-1],"loss_changes":[1.5448396E1,1.0966329E1,7.75536E0,4.2344933E0,4.2760496E0,4.8749485E0,3.3694344E0,3.8334193E0,9.57716E-1,1.4534602E0,2.5411344E0,0E0,3.2189236E0,1.5649655E0,1.7251338E0,9.467354E-1,1.617569E0,1.8556976E-1,0E0,0E0,0E0,1.0600371E0,4.7506732E-1,0E0,2.501934E0,0E0,0E0,6.084584E-1,0E0,0E0,0E0,0E0,0E0,0E0,0E0,0E0,0E0,0E0,0E0,1.7520828E0,0E0,0E0,0E0,0E0,0E0],"parents":[2147483647,0,0,1,1,2,2,3,3,4,4,5,5,6,6,7,7,8,8,9,9,10,10,12,12,13,13,14,14,15,15,16,16,17,17,21,21,22,22,24,24,27,27,39,39],"right_children":[2,4,6,8,10,12,14,16,18,20,22,-1,24,26,28,30,32,34,-1,-1,-1,36,38,-1,40,-1,-1,42,-1,-1,-1,-1,-1,-1,-1,-1,-1,-1,-1,44,-1,-1,-1,-1,-1],"split_conditions":[1.1963919E-1,4.225233E-1,4.480736E-1,-2.699977E-1,-1.5177591E-1,-1.1246567E0,2.2547558E-1,-1.6882598E-2,1.068114E0,-5.322147E-1,6.241359E-1,-5.9744384E-2,-5.390152E-1,-5.96499E-1,1.3418189E-1,8.1081045E-1,4.6293783E-1,1.7910309E0,-3.1406977E-3,2.1587284E-2,-8.0559835E-2,2.372146E-1,4.3844974E-1,-4.4990778E-2,1.6954522E0,1.5099955E-2,-9.241492E-2,-1.20815136E-1,-4.9806163E-2,-8.9519E-2,5.878309E-3,7.1349785E-2,-3.947793E-2,-1.0327333E-1,-2.4794128E-2,9.246125E-2,1.1050357E-3,1.398526E-2,-5.9200533E-2,-1.4596804E0,-3.8953986E-2,-3.0771748E-3,7.880144E-2,-2.0738706E-2,9.212813E-2],"split_indices":[325,377,190,202,163,156,323,298,129,239,154,0,384,193,214,113,289,205,0,0,0,231,41,0,96,0,0,206,0,0,0,0,0,0,0,0,0,0,0,247,0,0,0,0,0],"split_type":[0,0,0,0,0,0,0,0,0,0,0,0,0,0,0,0,0,0,0,0,0,0,0,0,0,0,0,0,0,0,0,0,0,0,0,0,0,0,0,0,0,0,0,0,0],"sum_hessian":[9.385573E1,4.887869E1,4.4977043E1,3.2969975E1,1.5908711E1,3.3204395E1,1.1772646E1,9.914306E0,2.305567E1,4.6586714E0,1.125004E1,2.2539952E0,3.0950401E1,6.741115E0,5.031531E0,5.1436434E0,4.7706623E0,2.1935625E1,1.1200448E0,1.5856447E0,3.0730264E0,9.1658745E0,2.084165E0,1.5467135E0,2.9403688E1,1.3986996E0,5.342416E0,3.8461056E0,1.1854253E0,3.9773839E0,1.1662595E0,3.6729288E0,1.0977336E0,2.0878708E1,1.0569183E0,7.648538E0,1.5173367E0,1.005677E0,1.078488E0,2.8286743E1,1.1169453E0,1.1016529E0,2.7444527E0,1.0977204E0,2.7189022E1],"tree_param":{"num_deleted":"0","num_feature":"388","num_nodes":"45","size_leaf_vector":"1"}},{"base_weights":[-3.1124314E-2,4.385541E-1,-3.643434E-1,6.578004E-1,-7.513012E-1,1.0723627E-1,-7.183428E-1,-4.3534073E-1,7.774282E-1,-2.730724E-3,-8.86355E-2,-7.220447E-1,3.7937182E-1,-8.2224384E-2,-8.987272E-1,1.3558581E-2,-6.904703E-2,-3.226654E-2,8.5991096E-1,3.271135E-3,-8.757813E-2,6.064346E-1,-3.4607077E-1,5.1004297E-1,-7.556172E-2,-9.569472E-1,8.7793935E-3,1.2598191E-1,9.482922E-1,7.5520426E-1,-4.336479E-2,-7.299084E-2,4.5606554E-2,-1.8489668E-2,7.5055115E-2,-1.8125687E-3,-1.0108987E0,5.816404E-2,-5.3899683E-2,9.8744445E-2,7.633839E-3,8.572125E-2,-1.9349413E-2,-1.0420158E-1,-2.2615561E-2],"categories":[],"categories_nodes":[],"categories_segments":[],"categories_sizes":[],"default_left":[0,0,0,0,0,0,0,0,0,0,0,0,0,0,0,0,0,0,0,0,0,0,0,0,0,0,0,0,0,0,0,0,0,0,0,0,0,0,0,0,0,0,0,0,0],"id":27,"left_children":[1,3,5,7,9,11,13,15,17,-1,-1,19,21,23,25,-1,-1,-1,27,-1,-1,29,31,33,-1,35,-1,37,39,41,-1,-1,-1,-1,-1,-1,43,-1,-1,-1,-1,-1,-1,-1,-1],"loss_changes":[1.4118856E1,1.0269141E1,8.878337E0,4.545761E0,5.914991E-1,5.57205E0,3.3966017E0,6.4925706E-1,2.9414406E0,0E0,0E0,7.4167347E-1,3.2294714E0,3.4892988E0,1.431591E0,0E0,0E0,0E0,1.669775E0,0E0,0E0,2.5440335E0,1.8743846E0,9.3062866E-1,0E0,1.1081066E0,0E0,1.5612388E0,7.598648E-1,1.4139876E0,0E0,0E0,0E0,0E0,0E0,0E0,2.7744102E-1,0E0,0E0,0E0,0E0,0E0,0E0,0E0,0E0],"parents":[2147483647,0,0,1,1,2,2,3,3,4,4,5,5,6,6,7,7,8,8,11,11,12,12,13,13,14,14,18,18,21,21,22,22,23,23,25,25,27,27,28,28,29,29,36,36],"right_children":[2,4,6,8,10,12,14,16,18,-1,-1,20,22,24,26,-1,-1,-1,28,-1,-1,30,32,34,-1,36,-1,38,40,42,-1,-1,-1,-1,-1,-1,44,-1,-1,-1,-1,-1,-1,-1,-1],"split_conditions":[-1.6510797E-1,7.587507E-1,-1.2741002E-1,-7.504429E-1,-9.063143E-1,-5.628284E-1,-5.457482E-1,-3.1143257E-1,-1.0552878E0,-2.730724E-3,-8.86355E-2,-1.2733681E0,7.1061045E-1,-1.1063479E-1,1.2402672E0,1.3558581E-2,-6.904703E-2,-3.226654E-2,-4.9679595E-1,3.271135E-3,-8.757813E-2,9.1049296E-1,1.1927752E0,-1.985616E-1,-7.556172E-2,-1.5268344E0,8.7793935E-3,2.2957808E-1,9.737522E-1,1.4175395E0,-4.336479E-2,-7.299084E-2,4.5606554E-2,-1.8489668E-2,7.5055115E-2,-1.8125687E-3,1.3966416E0,5.816404E-2,-5.3899683E-2,9.8744445E-2,7.633839E-3,8.572125E-2,-1.9349413E-2,-1.0420158E-1,-2.2615561E-2],"split_indices":[193,165,190,353,154,298,41,360,148,0,0,102,154,278,373,0,0,0,145,0,0,181,255,208,0,281,0,190,231,242,0,0,0,0,0,0,252,0,0,0,0,0,0,0,0],"split_type":[0,0,0,0,0,0,0,0,0,0,0,0,0,0,0,0,0,0,0,0,0,0,0,0,0,0,0,0,0,0,0,0,0,0,0,0,0,0,0,0,0,0,0,0,0],"sum_hessian":[8.819203E1,3.6470325E1,5.1721706E1,3.1173386E1,5.2969413E0,2.2476606E1,2.92451E1,2.8146257E0,2.8358759E1,1.0217508E0,4.2751904E0,5.144988E0,1.733162E1,6.7825465E0,2.2462553E1,1.0140204E0,1.8006053E0,1.7748754E0,2.6583883E1,1.0038587E0,4.141129E0,1.3324967E1,4.006651E0,3.7377079E0,3.044839E0,2.1239096E1,1.2234578E0,3.117898E0,2.3465986E1,1.1897142E1,1.4278252E0,2.7708097E0,1.2358414E0,1.020432E0,2.7172756E0,1.2268232E0,2.0012272E1,1.924507E0,1.193391E0,2.2330841E1,1.135145E0,1.0829175E1,1.0679669E0,1.893366E1,1.0786114E0],"tree_param":{"num_deleted":"0","num_feature":"388","num_nodes":"45","size_leaf_vector":"1"}},{"base_weights":[-3.3308033E-2,-6.083308E-1,2.3045164E-1,-7.7939016E-1,2.2518818E-1,5.1393217E-1,-3.0821234E-1,-9.120095E-1,-6.952133E-2,6.0626423E-1,-4.956102E-2,-7.0881915E-1,6.680025E-1,-6.7952186E-1,3.1879866E-1,-5.13301E-3,-9.668211E-1,4.3296513E-1,-6.478434E-2,1.6234836E-2,7.0393406E-2,-7.886227E-2,-2.03474E-2,-4.4610134E-1,7.788597E-1,-8.7939936E-1,3.3533506E-2,7.683351E-2,-4.0785483E-1,-2.0866444E-2,-1.0034682E-1,5.5555742E-2,